<GAP_2023_11_9_0_16_55_24_986>
<Potential label="GAP_2023_11_9_0_16_55_24_986" init_args="IP GAP label=GAP_2023_11_9_0_16_55_24_986"/>
<GAP_params label="GAP_2023_11_9_0_16_55_24_986" gap_version="1631710424">
  <GAP_data do_core="F">
    <e0 Z="1" value=".00000000000000000E+000"/>
    <e0 Z="2" value=".00000000000000000E+000"/>
    <e0 Z="3" value=".00000000000000000E+000"/>
    <e0 Z="4" value=".00000000000000000E+000"/>
    <e0 Z="5" value=".00000000000000000E+000"/>
    <e0 Z="6" value=".00000000000000000E+000"/>
    <e0 Z="7" value=".00000000000000000E+000"/>
    <e0 Z="8" value=".00000000000000000E+000"/>
    <e0 Z="9" value=".00000000000000000E+000"/>
    <e0 Z="10" value=".00000000000000000E+000"/>
    <e0 Z="11" value=".00000000000000000E+000"/>
    <e0 Z="12" value=".00000000000000000E+000"/>
    <e0 Z="13" value=".00000000000000000E+000"/>
    <e0 Z="14" value=".00000000000000000E+000"/>
    <e0 Z="15" value=".00000000000000000E+000"/>
    <e0 Z="16" value=".00000000000000000E+000"/>
    <e0 Z="17" value=".00000000000000000E+000"/>
    <e0 Z="18" value=".00000000000000000E+000"/>
    <e0 Z="19" value=".00000000000000000E+000"/>
    <e0 Z="20" value=".00000000000000000E+000"/>
    <e0 Z="21" value=".00000000000000000E+000"/>
    <e0 Z="22" value="-1587.0236000000000"/>
    <e0 Z="23" value=".00000000000000000E+000"/>
    <e0 Z="24" value=".00000000000000000E+000"/>
    <e0 Z="25" value=".00000000000000000E+000"/>
    <e0 Z="26" value=".00000000000000000E+000"/>
    <e0 Z="27" value=".00000000000000000E+000"/>
    <e0 Z="28" value=".00000000000000000E+000"/>
    <e0 Z="29" value=".00000000000000000E+000"/>
    <e0 Z="30" value=".00000000000000000E+000"/>
    <e0 Z="31" value=".00000000000000000E+000"/>
    <e0 Z="32" value=".00000000000000000E+000"/>
    <e0 Z="33" value=".00000000000000000E+000"/>
    <e0 Z="34" value=".00000000000000000E+000"/>
    <e0 Z="35" value=".00000000000000000E+000"/>
    <e0 Z="36" value=".00000000000000000E+000"/>
    <e0 Z="37" value=".00000000000000000E+000"/>
    <e0 Z="38" value=".00000000000000000E+000"/>
    <e0 Z="39" value=".00000000000000000E+000"/>
    <e0 Z="40" value=".00000000000000000E+000"/>
    <e0 Z="41" value=".00000000000000000E+000"/>
    <e0 Z="42" value=".00000000000000000E+000"/>
    <e0 Z="43" value=".00000000000000000E+000"/>
    <e0 Z="44" value=".00000000000000000E+000"/>
    <e0 Z="45" value=".00000000000000000E+000"/>
    <e0 Z="46" value=".00000000000000000E+000"/>
    <e0 Z="47" value=".00000000000000000E+000"/>
    <e0 Z="48" value=".00000000000000000E+000"/>
    <e0 Z="49" value=".00000000000000000E+000"/>
    <e0 Z="50" value=".00000000000000000E+000"/>
    <e0 Z="51" value=".00000000000000000E+000"/>
    <e0 Z="52" value=".00000000000000000E+000"/>
    <e0 Z="53" value=".00000000000000000E+000"/>
    <e0 Z="54" value=".00000000000000000E+000"/>
    <e0 Z="55" value=".00000000000000000E+000"/>
    <e0 Z="56" value=".00000000000000000E+000"/>
    <e0 Z="57" value=".00000000000000000E+000"/>
    <e0 Z="58" value=".00000000000000000E+000"/>
    <e0 Z="59" value=".00000000000000000E+000"/>
    <e0 Z="60" value=".00000000000000000E+000"/>
    <e0 Z="61" value=".00000000000000000E+000"/>
    <e0 Z="62" value=".00000000000000000E+000"/>
    <e0 Z="63" value=".00000000000000000E+000"/>
    <e0 Z="64" value=".00000000000000000E+000"/>
    <e0 Z="65" value=".00000000000000000E+000"/>
    <e0 Z="66" value=".00000000000000000E+000"/>
    <e0 Z="67" value=".00000000000000000E+000"/>
    <e0 Z="68" value=".00000000000000000E+000"/>
    <e0 Z="69" value=".00000000000000000E+000"/>
    <e0 Z="70" value=".00000000000000000E+000"/>
    <e0 Z="71" value=".00000000000000000E+000"/>
    <e0 Z="72" value=".00000000000000000E+000"/>
    <e0 Z="73" value=".00000000000000000E+000"/>
    <e0 Z="74" value=".00000000000000000E+000"/>
    <e0 Z="75" value=".00000000000000000E+000"/>
    <e0 Z="76" value=".00000000000000000E+000"/>
    <e0 Z="77" value=".00000000000000000E+000"/>
    <e0 Z="78" value=".00000000000000000E+000"/>
    <e0 Z="79" value=".00000000000000000E+000"/>
    <e0 Z="80" value=".00000000000000000E+000"/>
    <e0 Z="81" value=".00000000000000000E+000"/>
    <e0 Z="82" value=".00000000000000000E+000"/>
    <e0 Z="83" value=".00000000000000000E+000"/>
    <e0 Z="84" value=".00000000000000000E+000"/>
    <e0 Z="85" value=".00000000000000000E+000"/>
    <e0 Z="86" value=".00000000000000000E+000"/>
    <e0 Z="87" value=".00000000000000000E+000"/>
    <e0 Z="88" value=".00000000000000000E+000"/>
    <e0 Z="89" value=".00000000000000000E+000"/>
    <e0 Z="90" value=".00000000000000000E+000"/>
    <e0 Z="91" value=".00000000000000000E+000"/>
    <e0 Z="92" value=".00000000000000000E+000"/>
    <e0 Z="93" value=".00000000000000000E+000"/>
    <e0 Z="94" value=".00000000000000000E+000"/>
    <e0 Z="95" value=".00000000000000000E+000"/>
    <e0 Z="96" value=".00000000000000000E+000"/>
    <e0 Z="97" value=".00000000000000000E+000"/>
    <e0 Z="98" value=".00000000000000000E+000"/>
    <e0 Z="99" value=".00000000000000000E+000"/>
    <e0 Z="100" value=".00000000000000000E+000"/>
    <e0 Z="101" value=".00000000000000000E+000"/>
    <e0 Z="102" value=".00000000000000000E+000"/>
    <e0 Z="103" value=".00000000000000000E+000"/>
    <e0 Z="104" value=".00000000000000000E+000"/>
    <e0 Z="105" value=".00000000000000000E+000"/>
    <e0 Z="106" value=".00000000000000000E+000"/>
    <e0 Z="107" value=".00000000000000000E+000"/>
    <e0 Z="108" value=".00000000000000000E+000"/>
    <e0 Z="109" value=".00000000000000000E+000"/>
    <e0 Z="110" value=".00000000000000000E+000"/>
    <e0 Z="111" value=".00000000000000000E+000"/>
    <e0 Z="112" value=".00000000000000000E+000"/>
    <e0 Z="113" value=".00000000000000000E+000"/>
    <e0 Z="114" value=".00000000000000000E+000"/>
    <e0 Z="115" value=".00000000000000000E+000"/>
    <e0 Z="116" value=".00000000000000000E+000"/>
    <e0 Z="117" value=".00000000000000000E+000"/>
    <e0 Z="118" value=".00000000000000000E+000"/>
  </GAP_data>
  <gpSparse label="GAP_2023_11_9_0_16_55_24_986" n_coordinate="2" fitted="T">
    <gpCoordinates label="GAP_2023_11_9_0_16_55_24_9861" dimensions="4" signal_variance=".10000000000000001E+000" signal_mean=".00000000000000000E+000" sparsified="T" n_permutations="1" covariance_type="2" zeta="1.0000000000000000" n_sparseX="20" sparseX_filename="Ti_cd_oct23_2024_awfr_0.02_min_0.025_cwvr_0.05_min_0.05_SPbyConf_3300sp.xml.sparseX.GAP_2023_11_9_0_16_55_24_9861" sparseX_md5sum="5d6781b6a2f7a3821f694d6984cf8b21">
      <descriptor>    distance_2b cutoff=3.5 n_exponents=4 exponents=&apos;-4  -8 -12 -14&apos; delta=0.1 n_sparse=20 sparse_method=uniform covariance_type=dot_product zeta=1 Z1=22 Z2=22</descriptor>
      <permutation i="1">1  </permutation>
      <sparseX i="1" alpha="533.48050058014860" sparseCutoff="1.0000000000000000"/>
      <sparseX i="2" alpha="-573.60043199015104" sparseCutoff="1.0000000000000000"/>
      <sparseX i="3" alpha="-2184.9965955845987" sparseCutoff="1.0000000000000000"/>
      <sparseX i="4" alpha="-2210.1328805944427" sparseCutoff="1.0000000000000000"/>
      <sparseX i="5" alpha="-2040.0239081462378" sparseCutoff="1.0000000000000000"/>
      <sparseX i="6" alpha="-2096.7053893670318" sparseCutoff="1.0000000000000000"/>
      <sparseX i="7" alpha="1820.3634607457820" sparseCutoff="1.0000000000000000"/>
      <sparseX i="8" alpha="-2096.1817033331754" sparseCutoff="1.0000000000000000"/>
      <sparseX i="9" alpha="1.6976772558305600" sparseCutoff=".50592020697864948E-002"/>
      <sparseX i="10" alpha="489.22595787016007" sparseCutoff="1.0000000000000000"/>
      <sparseX i="11" alpha="513.59155950611171" sparseCutoff="1.0000000000000000"/>
      <sparseX i="12" alpha="547.71196983883590" sparseCutoff="1.0000000000000000"/>
      <sparseX i="13" alpha="-1519.8309494694654" sparseCutoff="1.0000000000000000"/>
      <sparseX i="14" alpha="7415.8171903450984" sparseCutoff="1.0000000000000000"/>
      <sparseX i="15" alpha="517.05986965431066" sparseCutoff="1.0000000000000000"/>
      <sparseX i="16" alpha="-318.36582605786828" sparseCutoff="1.0000000000000000"/>
      <sparseX i="17" alpha="-377.31830979642649" sparseCutoff="1.0000000000000000"/>
      <sparseX i="18" alpha="495.74011304383953" sparseCutoff="1.0000000000000000"/>
      <sparseX i="19" alpha="-611.14125998661655" sparseCutoff="1.0000000000000000"/>
      <sparseX i="20" alpha="-2186.2531494511227" sparseCutoff="1.0000000000000000"/>
    </gpCoordinates>
    <gpCoordinates label="GAP_2023_11_9_0_16_55_24_9862" dimensions="324" signal_variance="1.0000000000000000" signal_mean=".00000000000000000E+000" sparsified="T" n_permutations="1" covariance_type="2" zeta="6.0000000000000000" n_sparseX="3300" sparseX_filename="Ti_cd_oct23_2024_awfr_0.02_min_0.025_cwvr_0.05_min_0.05_SPbyConf_3300sp.xml.sparseX.GAP_2023_11_9_0_16_55_24_9862" sparseX_md5sum="1b6777ff30c450a97d002eb382c94af3">
      <descriptor>   soap_turbo    config_type_n_sparse=hcp_geomopti_prim_phgr_4x4x4_rattle_0.10_cparams_0.95_to_0.98:250:hcp_geomopti_prim_phgr_4x4x4_rattle_0.10_cparams_0.99_to_1.01_extra:250:hcp_Ti_phgr4x4x4_cpara_0.97_to_1.01_rattle_0.02:250:hcp_Ti_symshear_0.01_uniform:100:hex_Ti_geomopti_prim_phgr_4x4x4_rattle_0.10_cprms_0.95_to_0.98:250:hex_Ti_geomopti_prim_phgr_4x4x4_rattle_0.10_cprms_0.99_to_1.01:250:hex_Ti_geomopti_prim_phgr_4x4x4_rattle_0.10_cprms_0.99_to_1.01_extra:250:hex_Ti_phgr4x4x4_cpara_0.97_to_1.01_rattle_0.02:250:hex_Ti_symshear_0.01_uniform:100:bcc_Ti_prim_phgr4x4x4_cpara_0.90_to_1.03:250:bcc_Ti_symshear_0.01_uniform:100:liquid:1000    sparse_method=cur_points l_max=8 alpha_max=8 rcut_soft=5.5 rcut_hard=6.0 zeta=6 basis=&quot;poly3gauss&quot; n_species=1 species_Z=22 atom_sigma_r=0.5 atom_sigma_t=0.5 atom_sigma_r_scaling=0 atom_sigma_t_scaling=0.0 radial_enhancement=1  amplitude_scaling=1.0  central_weight=1.0  delta=1.0 covariance_type=dot_product add_species=F 
central_index=1</descriptor>
      <permutation i="1">1  </permutation>
      <sparseX i="1" alpha="2409.8034272716932" sparseCutoff="1.0000000000000000"/>
      <sparseX i="2" alpha="1469.9970665300341" sparseCutoff="1.0000000000000000"/>
      <sparseX i="3" alpha="-1489.9809981217013" sparseCutoff="1.0000000000000000"/>
      <sparseX i="4" alpha="-3062.7719780081279" sparseCutoff="1.0000000000000000"/>
      <sparseX i="5" alpha="-1683.5608832028652" sparseCutoff="1.0000000000000000"/>
      <sparseX i="6" alpha="-2385.3518983852814" sparseCutoff="1.0000000000000000"/>
      <sparseX i="7" alpha="6668.5151076538841" sparseCutoff="1.0000000000000000"/>
      <sparseX i="8" alpha="17024.207937493404" sparseCutoff="1.0000000000000000"/>
      <sparseX i="9" alpha="1306.2392682628765" sparseCutoff="1.0000000000000000"/>
      <sparseX i="10" alpha="142.62990461844012" sparseCutoff="1.0000000000000000"/>
      <sparseX i="11" alpha="-42040.000314772486" sparseCutoff="1.0000000000000000"/>
      <sparseX i="12" alpha="72984.668568452995" sparseCutoff="1.0000000000000000"/>
      <sparseX i="13" alpha="37835.173897472545" sparseCutoff="1.0000000000000000"/>
      <sparseX i="14" alpha="31474.226292627562" sparseCutoff="1.0000000000000000"/>
      <sparseX i="15" alpha="6136.0594639875853" sparseCutoff="1.0000000000000000"/>
      <sparseX i="16" alpha="-573.82506849701292" sparseCutoff="1.0000000000000000"/>
      <sparseX i="17" alpha="-2578.2995290685781" sparseCutoff="1.0000000000000000"/>
      <sparseX i="18" alpha="1553.1655231982434" sparseCutoff="1.0000000000000000"/>
      <sparseX i="19" alpha="3313.0571765089612" sparseCutoff="1.0000000000000000"/>
      <sparseX i="20" alpha="1008.1108953460720" sparseCutoff="1.0000000000000000"/>
      <sparseX i="21" alpha="-212.11602153779148" sparseCutoff="1.0000000000000000"/>
      <sparseX i="22" alpha="-1215.9067781612641" sparseCutoff="1.0000000000000000"/>
      <sparseX i="23" alpha="670.06799442901331" sparseCutoff="1.0000000000000000"/>
      <sparseX i="24" alpha="69974.025013210194" sparseCutoff="1.0000000000000000"/>
      <sparseX i="25" alpha="116304.46424804413" sparseCutoff="1.0000000000000000"/>
      <sparseX i="26" alpha="-30042.814643942522" sparseCutoff="1.0000000000000000"/>
      <sparseX i="27" alpha="359.78483403751517" sparseCutoff="1.0000000000000000"/>
      <sparseX i="28" alpha="554.53386572760303" sparseCutoff="1.0000000000000000"/>
      <sparseX i="29" alpha="-649.22776758001794" sparseCutoff="1.0000000000000000"/>
      <sparseX i="30" alpha="2762.5020591956054" sparseCutoff="1.0000000000000000"/>
      <sparseX i="31" alpha="15.070894870402784" sparseCutoff="1.0000000000000000"/>
      <sparseX i="32" alpha="-290.33693611412122" sparseCutoff="1.0000000000000000"/>
      <sparseX i="33" alpha="136.86118223275619" sparseCutoff="1.0000000000000000"/>
      <sparseX i="34" alpha="-27.783723832174797" sparseCutoff="1.0000000000000000"/>
      <sparseX i="35" alpha="-200.07396688313068" sparseCutoff="1.0000000000000000"/>
      <sparseX i="36" alpha="55.125543565199770" sparseCutoff="1.0000000000000000"/>
      <sparseX i="37" alpha="-46.659698519549650" sparseCutoff="1.0000000000000000"/>
      <sparseX i="38" alpha="39.913067796616147" sparseCutoff="1.0000000000000000"/>
      <sparseX i="39" alpha="-254.38887743655769" sparseCutoff="1.0000000000000000"/>
      <sparseX i="40" alpha="-73.475736756982116" sparseCutoff="1.0000000000000000"/>
      <sparseX i="41" alpha="71.799925502510490" sparseCutoff="1.0000000000000000"/>
      <sparseX i="42" alpha="-15.607934030947373" sparseCutoff="1.0000000000000000"/>
      <sparseX i="43" alpha="-49.976433105094060" sparseCutoff="1.0000000000000000"/>
      <sparseX i="44" alpha="-44.849058351413071" sparseCutoff="1.0000000000000000"/>
      <sparseX i="45" alpha="-2.3436949890273038" sparseCutoff="1.0000000000000000"/>
      <sparseX i="46" alpha="-143.14003374055642" sparseCutoff="1.0000000000000000"/>
      <sparseX i="47" alpha="-34.149780454534550" sparseCutoff="1.0000000000000000"/>
      <sparseX i="48" alpha="-94.450593081042172" sparseCutoff="1.0000000000000000"/>
      <sparseX i="49" alpha="-53.187493742497324" sparseCutoff="1.0000000000000000"/>
      <sparseX i="50" alpha="27.482505397638644" sparseCutoff="1.0000000000000000"/>
      <sparseX i="51" alpha="-34.694990818361681" sparseCutoff="1.0000000000000000"/>
      <sparseX i="52" alpha="8.1726772747553333" sparseCutoff="1.0000000000000000"/>
      <sparseX i="53" alpha="-152.05086743172384" sparseCutoff="1.0000000000000000"/>
      <sparseX i="54" alpha="142.29265975545059" sparseCutoff="1.0000000000000000"/>
      <sparseX i="55" alpha="-256.44177991378928" sparseCutoff="1.0000000000000000"/>
      <sparseX i="56" alpha="2289.2393885723595" sparseCutoff="1.0000000000000000"/>
      <sparseX i="57" alpha="859.90466132840481" sparseCutoff="1.0000000000000000"/>
      <sparseX i="58" alpha="201.50488417546009" sparseCutoff="1.0000000000000000"/>
      <sparseX i="59" alpha="-50.579148961249622" sparseCutoff="1.0000000000000000"/>
      <sparseX i="60" alpha="-1348.2809822100680" sparseCutoff="1.0000000000000000"/>
      <sparseX i="61" alpha="368.24835515751272" sparseCutoff="1.0000000000000000"/>
      <sparseX i="62" alpha="1194.3159534240997" sparseCutoff="1.0000000000000000"/>
      <sparseX i="63" alpha="-2754.3747343775549" sparseCutoff="1.0000000000000000"/>
      <sparseX i="64" alpha="-730.10262700676878" sparseCutoff="1.0000000000000000"/>
      <sparseX i="65" alpha="23630.316710992345" sparseCutoff="1.0000000000000000"/>
      <sparseX i="66" alpha="-97257.428721090400" sparseCutoff="1.0000000000000000"/>
      <sparseX i="67" alpha="69364.599595788532" sparseCutoff="1.0000000000000000"/>
      <sparseX i="68" alpha="-177265.76915459384" sparseCutoff="1.0000000000000000"/>
      <sparseX i="69" alpha="-29521.132896079504" sparseCutoff="1.0000000000000000"/>
      <sparseX i="70" alpha="-388.81762898870886" sparseCutoff="1.0000000000000000"/>
      <sparseX i="71" alpha="3826.9722345436498" sparseCutoff="1.0000000000000000"/>
      <sparseX i="72" alpha="349.80513719328053" sparseCutoff="1.0000000000000000"/>
      <sparseX i="73" alpha="34170.845700186583" sparseCutoff="1.0000000000000000"/>
      <sparseX i="74" alpha="60125.878081937080" sparseCutoff="1.0000000000000000"/>
      <sparseX i="75" alpha="54817.288667081419" sparseCutoff="1.0000000000000000"/>
      <sparseX i="76" alpha="-534.06834991876462" sparseCutoff="1.0000000000000000"/>
      <sparseX i="77" alpha="-292.17639622351692" sparseCutoff="1.0000000000000000"/>
      <sparseX i="78" alpha="833.33677960407124" sparseCutoff="1.0000000000000000"/>
      <sparseX i="79" alpha="1043.6351506857550" sparseCutoff="1.0000000000000000"/>
      <sparseX i="80" alpha="-1125.4764611793078" sparseCutoff="1.0000000000000000"/>
      <sparseX i="81" alpha="-155.14096524500366" sparseCutoff="1.0000000000000000"/>
      <sparseX i="82" alpha="-11.470276138276324" sparseCutoff="1.0000000000000000"/>
      <sparseX i="83" alpha="-78.574885455759940" sparseCutoff="1.0000000000000000"/>
      <sparseX i="84" alpha=".62577611927516641" sparseCutoff="1.0000000000000000"/>
      <sparseX i="85" alpha="-220.63471784578451" sparseCutoff="1.0000000000000000"/>
      <sparseX i="86" alpha="37.621254870534258" sparseCutoff="1.0000000000000000"/>
      <sparseX i="87" alpha="-61.750810998430595" sparseCutoff="1.0000000000000000"/>
      <sparseX i="88" alpha="-101.94271929029992" sparseCutoff="1.0000000000000000"/>
      <sparseX i="89" alpha="-46.676103438384658" sparseCutoff="1.0000000000000000"/>
      <sparseX i="90" alpha="-89.024186698362342" sparseCutoff="1.0000000000000000"/>
      <sparseX i="91" alpha="54.703716266171959" sparseCutoff="1.0000000000000000"/>
      <sparseX i="92" alpha="71.658501683735352" sparseCutoff="1.0000000000000000"/>
      <sparseX i="93" alpha="17.434856536001995" sparseCutoff="1.0000000000000000"/>
      <sparseX i="94" alpha="84.211256853197966" sparseCutoff="1.0000000000000000"/>
      <sparseX i="95" alpha="-108.34726127369504" sparseCutoff="1.0000000000000000"/>
      <sparseX i="96" alpha="43.883617245588731" sparseCutoff="1.0000000000000000"/>
      <sparseX i="97" alpha="-146.53245580188309" sparseCutoff="1.0000000000000000"/>
      <sparseX i="98" alpha="374.79022112583783" sparseCutoff="1.0000000000000000"/>
      <sparseX i="99" alpha="645.56142958743737" sparseCutoff="1.0000000000000000"/>
      <sparseX i="100" alpha="1281.0732408134968" sparseCutoff="1.0000000000000000"/>
      <sparseX i="101" alpha="-32753.986407044482" sparseCutoff="1.0000000000000000"/>
      <sparseX i="102" alpha="89735.669826124795" sparseCutoff="1.0000000000000000"/>
      <sparseX i="103" alpha="95982.879147294560" sparseCutoff="1.0000000000000000"/>
      <sparseX i="104" alpha="13918.220212573809" sparseCutoff="1.0000000000000000"/>
      <sparseX i="105" alpha="-10713.935254355552" sparseCutoff="1.0000000000000000"/>
      <sparseX i="106" alpha="13231.899875222969" sparseCutoff="1.0000000000000000"/>
      <sparseX i="107" alpha="-23056.126149627686" sparseCutoff="1.0000000000000000"/>
      <sparseX i="108" alpha="19.324074570079873" sparseCutoff="1.0000000000000000"/>
      <sparseX i="109" alpha="-1739.2638938799557" sparseCutoff="1.0000000000000000"/>
      <sparseX i="110" alpha="19.443742111005236" sparseCutoff="1.0000000000000000"/>
      <sparseX i="111" alpha="1274.1677406508697" sparseCutoff="1.0000000000000000"/>
      <sparseX i="112" alpha="4074.2755213813662" sparseCutoff="1.0000000000000000"/>
      <sparseX i="113" alpha="-3271.8250884399031" sparseCutoff="1.0000000000000000"/>
      <sparseX i="114" alpha="-1659.4366527224786" sparseCutoff="1.0000000000000000"/>
      <sparseX i="115" alpha="-1770.2287343866387" sparseCutoff="1.0000000000000000"/>
      <sparseX i="116" alpha="-3264.8446392493543" sparseCutoff="1.0000000000000000"/>
      <sparseX i="117" alpha="42993.376533933493" sparseCutoff="1.0000000000000000"/>
      <sparseX i="118" alpha="-143722.79221199066" sparseCutoff="1.0000000000000000"/>
      <sparseX i="119" alpha="-16743.445833928592" sparseCutoff="1.0000000000000000"/>
      <sparseX i="120" alpha="409.22688030082611" sparseCutoff="1.0000000000000000"/>
      <sparseX i="121" alpha="-365.84254351321169" sparseCutoff="1.0000000000000000"/>
      <sparseX i="122" alpha="28.504594299417441" sparseCutoff="1.0000000000000000"/>
      <sparseX i="123" alpha="8.4165575354947997" sparseCutoff="1.0000000000000000"/>
      <sparseX i="124" alpha="-87.910337579784368" sparseCutoff="1.0000000000000000"/>
      <sparseX i="125" alpha="-18.151836789702529" sparseCutoff="1.0000000000000000"/>
      <sparseX i="126" alpha="271.13786896593700" sparseCutoff="1.0000000000000000"/>
      <sparseX i="127" alpha="-86.101007319044896" sparseCutoff="1.0000000000000000"/>
      <sparseX i="128" alpha="-31.391814600357801" sparseCutoff="1.0000000000000000"/>
      <sparseX i="129" alpha="84.660371823847285" sparseCutoff="1.0000000000000000"/>
      <sparseX i="130" alpha="62.293135577286023" sparseCutoff="1.0000000000000000"/>
      <sparseX i="131" alpha="101.17456044266558" sparseCutoff="1.0000000000000000"/>
      <sparseX i="132" alpha="-16.701324637179539" sparseCutoff="1.0000000000000000"/>
      <sparseX i="133" alpha=".41669878585757386" sparseCutoff="1.0000000000000000"/>
      <sparseX i="134" alpha="-1.9087721962407613" sparseCutoff="1.0000000000000000"/>
      <sparseX i="135" alpha="210.07631017143410" sparseCutoff="1.0000000000000000"/>
      <sparseX i="136" alpha="78.275704890535209" sparseCutoff="1.0000000000000000"/>
      <sparseX i="137" alpha="-49.008093989542026" sparseCutoff="1.0000000000000000"/>
      <sparseX i="138" alpha="-16.845021211510844" sparseCutoff="1.0000000000000000"/>
      <sparseX i="139" alpha="144.00274429583422" sparseCutoff="1.0000000000000000"/>
      <sparseX i="140" alpha="-2953.1839866431105" sparseCutoff="1.0000000000000000"/>
      <sparseX i="141" alpha="7230.5034351139893" sparseCutoff="1.0000000000000000"/>
      <sparseX i="142" alpha="2534.1447901202469" sparseCutoff="1.0000000000000000"/>
      <sparseX i="143" alpha="-35630.273173470989" sparseCutoff="1.0000000000000000"/>
      <sparseX i="144" alpha="-1000.3578526384546" sparseCutoff="1.0000000000000000"/>
      <sparseX i="145" alpha="1088.5296847076104" sparseCutoff="1.0000000000000000"/>
      <sparseX i="146" alpha="-1176.4644803897770" sparseCutoff="1.0000000000000000"/>
      <sparseX i="147" alpha="-2499.4526741233221" sparseCutoff="1.0000000000000000"/>
      <sparseX i="148" alpha="1199.5449034493236" sparseCutoff="1.0000000000000000"/>
      <sparseX i="149" alpha="-808.43809678957837" sparseCutoff="1.0000000000000000"/>
      <sparseX i="150" alpha="1310.9716476557201" sparseCutoff="1.0000000000000000"/>
      <sparseX i="151" alpha="1054.6139860898534" sparseCutoff="1.0000000000000000"/>
      <sparseX i="152" alpha="2891.1961623256320" sparseCutoff="1.0000000000000000"/>
      <sparseX i="153" alpha="4161.5358771843757" sparseCutoff="1.0000000000000000"/>
      <sparseX i="154" alpha="4356.4182147109123" sparseCutoff="1.0000000000000000"/>
      <sparseX i="155" alpha="872.30434073078868" sparseCutoff="1.0000000000000000"/>
      <sparseX i="156" alpha="379.12103553190150" sparseCutoff="1.0000000000000000"/>
      <sparseX i="157" alpha="-70135.236327212420" sparseCutoff="1.0000000000000000"/>
      <sparseX i="158" alpha="48789.704256984536" sparseCutoff="1.0000000000000000"/>
      <sparseX i="159" alpha="3057.6976631169578" sparseCutoff="1.0000000000000000"/>
      <sparseX i="160" alpha="2768.5090323879276" sparseCutoff="1.0000000000000000"/>
      <sparseX i="161" alpha="905.15504759543398" sparseCutoff="1.0000000000000000"/>
      <sparseX i="162" alpha="367.20363520825703" sparseCutoff="1.0000000000000000"/>
      <sparseX i="163" alpha="35.306146763497075" sparseCutoff="1.0000000000000000"/>
      <sparseX i="164" alpha="-165.93642806974782" sparseCutoff="1.0000000000000000"/>
      <sparseX i="165" alpha="-130.72512869577778" sparseCutoff="1.0000000000000000"/>
      <sparseX i="166" alpha="651.45515832279909" sparseCutoff="1.0000000000000000"/>
      <sparseX i="167" alpha="-9.9866749081870747" sparseCutoff="1.0000000000000000"/>
      <sparseX i="168" alpha="306.08572054007362" sparseCutoff="1.0000000000000000"/>
      <sparseX i="169" alpha="-250.29050473182909" sparseCutoff="1.0000000000000000"/>
      <sparseX i="170" alpha="4.4346521200646247" sparseCutoff="1.0000000000000000"/>
      <sparseX i="171" alpha="49.152794654071116" sparseCutoff="1.0000000000000000"/>
      <sparseX i="172" alpha="-102.32736126498267" sparseCutoff="1.0000000000000000"/>
      <sparseX i="173" alpha="100.47499389180088" sparseCutoff="1.0000000000000000"/>
      <sparseX i="174" alpha="-16.819797544803762" sparseCutoff="1.0000000000000000"/>
      <sparseX i="175" alpha="11.772959494095298" sparseCutoff="1.0000000000000000"/>
      <sparseX i="176" alpha="13.319198452821173" sparseCutoff="1.0000000000000000"/>
      <sparseX i="177" alpha="20.852347460125074" sparseCutoff="1.0000000000000000"/>
      <sparseX i="178" alpha="-86.811267333024958" sparseCutoff="1.0000000000000000"/>
      <sparseX i="179" alpha="-52.513501024819234" sparseCutoff="1.0000000000000000"/>
      <sparseX i="180" alpha="-43.179975341664090" sparseCutoff="1.0000000000000000"/>
      <sparseX i="181" alpha="1.5738248667649661" sparseCutoff="1.0000000000000000"/>
      <sparseX i="182" alpha="-40.860309967125161" sparseCutoff="1.0000000000000000"/>
      <sparseX i="183" alpha="-2.8895529711655730" sparseCutoff="1.0000000000000000"/>
      <sparseX i="184" alpha="552.27509428064309" sparseCutoff="1.0000000000000000"/>
      <sparseX i="185" alpha="142.39478440377036" sparseCutoff="1.0000000000000000"/>
      <sparseX i="186" alpha="-312.96743380925727" sparseCutoff="1.0000000000000000"/>
      <sparseX i="187" alpha="385.80579453543942" sparseCutoff="1.0000000000000000"/>
      <sparseX i="188" alpha="-71.825456648828734" sparseCutoff="1.0000000000000000"/>
      <sparseX i="189" alpha="1808.1958432773351" sparseCutoff="1.0000000000000000"/>
      <sparseX i="190" alpha="246.96158234627302" sparseCutoff="1.0000000000000000"/>
      <sparseX i="191" alpha="-2973.3792616251080" sparseCutoff="1.0000000000000000"/>
      <sparseX i="192" alpha="41910.080364374982" sparseCutoff="1.0000000000000000"/>
      <sparseX i="193" alpha="-16880.676614987809" sparseCutoff="1.0000000000000000"/>
      <sparseX i="194" alpha="-41753.949683863153" sparseCutoff="1.0000000000000000"/>
      <sparseX i="195" alpha="17057.729985657272" sparseCutoff="1.0000000000000000"/>
      <sparseX i="196" alpha="-11362.739592070024" sparseCutoff="1.0000000000000000"/>
      <sparseX i="197" alpha="8027.5602494299583" sparseCutoff="1.0000000000000000"/>
      <sparseX i="198" alpha="-7.1043298816412044" sparseCutoff="1.0000000000000000"/>
      <sparseX i="199" alpha="4191.4576320757824" sparseCutoff="1.0000000000000000"/>
      <sparseX i="200" alpha="4069.0124553458440" sparseCutoff="1.0000000000000000"/>
      <sparseX i="201" alpha="-2137.1416672580440" sparseCutoff="1.0000000000000000"/>
      <sparseX i="202" alpha="-3098.9314942039314" sparseCutoff="1.0000000000000000"/>
      <sparseX i="203" alpha="138.95809829409870" sparseCutoff="1.0000000000000000"/>
      <sparseX i="204" alpha="772.63057991668745" sparseCutoff="1.0000000000000000"/>
      <sparseX i="205" alpha="4327.2779063851312" sparseCutoff="1.0000000000000000"/>
      <sparseX i="206" alpha="-2255.4116150946143" sparseCutoff="1.0000000000000000"/>
      <sparseX i="207" alpha="-107022.35422381766" sparseCutoff="1.0000000000000000"/>
      <sparseX i="208" alpha="-52783.490595743941" sparseCutoff="1.0000000000000000"/>
      <sparseX i="209" alpha="18879.434947651927" sparseCutoff="1.0000000000000000"/>
      <sparseX i="210" alpha="1070.8975236091960" sparseCutoff="1.0000000000000000"/>
      <sparseX i="211" alpha="-18.703335630796818" sparseCutoff="1.0000000000000000"/>
      <sparseX i="212" alpha="-2325.5633529533793" sparseCutoff="1.0000000000000000"/>
      <sparseX i="213" alpha="3240.4278403026315" sparseCutoff="1.0000000000000000"/>
      <sparseX i="214" alpha="115.69919543697914" sparseCutoff="1.0000000000000000"/>
      <sparseX i="215" alpha="-368.66794263799551" sparseCutoff="1.0000000000000000"/>
      <sparseX i="216" alpha="-21.196177028578610" sparseCutoff="1.0000000000000000"/>
      <sparseX i="217" alpha="-116.11943448888704" sparseCutoff="1.0000000000000000"/>
      <sparseX i="218" alpha="-272.91438890737157" sparseCutoff="1.0000000000000000"/>
      <sparseX i="219" alpha="213.40950850363922" sparseCutoff="1.0000000000000000"/>
      <sparseX i="220" alpha="64.913505493792513" sparseCutoff="1.0000000000000000"/>
      <sparseX i="221" alpha="-32.374204398780144" sparseCutoff="1.0000000000000000"/>
      <sparseX i="222" alpha="-38.438883680688235" sparseCutoff="1.0000000000000000"/>
      <sparseX i="223" alpha="-20.196975991129307" sparseCutoff="1.0000000000000000"/>
      <sparseX i="224" alpha="35.204130634806006" sparseCutoff="1.0000000000000000"/>
      <sparseX i="225" alpha="-40.656842816877074" sparseCutoff="1.0000000000000000"/>
      <sparseX i="226" alpha="18.925975838503451" sparseCutoff="1.0000000000000000"/>
      <sparseX i="227" alpha="16.623856909032551" sparseCutoff="1.0000000000000000"/>
      <sparseX i="228" alpha="-52.355096750455374" sparseCutoff="1.0000000000000000"/>
      <sparseX i="229" alpha="105.76601069071488" sparseCutoff="1.0000000000000000"/>
      <sparseX i="230" alpha="-27.260788533766778" sparseCutoff="1.0000000000000000"/>
      <sparseX i="231" alpha="531.64649542274333" sparseCutoff="1.0000000000000000"/>
      <sparseX i="232" alpha="-1548.7019552293607" sparseCutoff="1.0000000000000000"/>
      <sparseX i="233" alpha="119290.67661023344" sparseCutoff="1.0000000000000000"/>
      <sparseX i="234" alpha="-2219.5160315929488" sparseCutoff="1.0000000000000000"/>
      <sparseX i="235" alpha="-7.0694023365989809" sparseCutoff="1.0000000000000000"/>
      <sparseX i="236" alpha="-4586.9580561371313" sparseCutoff="1.0000000000000000"/>
      <sparseX i="237" alpha="2368.6050198568546" sparseCutoff="1.0000000000000000"/>
      <sparseX i="238" alpha="3554.7373828548298" sparseCutoff="1.0000000000000000"/>
      <sparseX i="239" alpha="71.943658062239280" sparseCutoff="1.0000000000000000"/>
      <sparseX i="240" alpha="-99386.923759994344" sparseCutoff="1.0000000000000000"/>
      <sparseX i="241" alpha="67798.828349743926" sparseCutoff="1.0000000000000000"/>
      <sparseX i="242" alpha="7456.4646691992875" sparseCutoff="1.0000000000000000"/>
      <sparseX i="243" alpha="-34400.295805714755" sparseCutoff="1.0000000000000000"/>
      <sparseX i="244" alpha="16295.004544657109" sparseCutoff="1.0000000000000000"/>
      <sparseX i="245" alpha="11351.160124926566" sparseCutoff="1.0000000000000000"/>
      <sparseX i="246" alpha="-96.552793945001852" sparseCutoff="1.0000000000000000"/>
      <sparseX i="247" alpha="-1155.5208933192839" sparseCutoff="1.0000000000000000"/>
      <sparseX i="248" alpha="-847.72070243540293" sparseCutoff="1.0000000000000000"/>
      <sparseX i="249" alpha="1344.8616951230106" sparseCutoff="1.0000000000000000"/>
      <sparseX i="250" alpha="-105.33477231685676" sparseCutoff="1.0000000000000000"/>
      <sparseX i="251" alpha="258.49522048686919" sparseCutoff="1.0000000000000000"/>
      <sparseX i="252" alpha="-147.50028680461173" sparseCutoff="1.0000000000000000"/>
      <sparseX i="253" alpha="260.70495746402707" sparseCutoff="1.0000000000000000"/>
      <sparseX i="254" alpha="42.442543404596151" sparseCutoff="1.0000000000000000"/>
      <sparseX i="255" alpha="-40.742205642778245" sparseCutoff="1.0000000000000000"/>
      <sparseX i="256" alpha="39.906659788637796" sparseCutoff="1.0000000000000000"/>
      <sparseX i="257" alpha="136.38545027198043" sparseCutoff="1.0000000000000000"/>
      <sparseX i="258" alpha="-16.830101897981752" sparseCutoff="1.0000000000000000"/>
      <sparseX i="259" alpha="-70.842841914035247" sparseCutoff="1.0000000000000000"/>
      <sparseX i="260" alpha="-92.594642749593902" sparseCutoff="1.0000000000000000"/>
      <sparseX i="261" alpha="-11.867030742740482" sparseCutoff="1.0000000000000000"/>
      <sparseX i="262" alpha="-1770.8356572662642" sparseCutoff="1.0000000000000000"/>
      <sparseX i="263" alpha="-7802.6888463857777" sparseCutoff="1.0000000000000000"/>
      <sparseX i="264" alpha="-5374.5767646203603" sparseCutoff="1.0000000000000000"/>
      <sparseX i="265" alpha="-427.35260767548885" sparseCutoff="1.0000000000000000"/>
      <sparseX i="266" alpha="-69755.298978813851" sparseCutoff="1.0000000000000000"/>
      <sparseX i="267" alpha="-705.83965105625282" sparseCutoff="1.0000000000000000"/>
      <sparseX i="268" alpha="64.511122315182206" sparseCutoff="1.0000000000000000"/>
      <sparseX i="269" alpha="-2020.3161460287033" sparseCutoff="1.0000000000000000"/>
      <sparseX i="270" alpha="3453.7657201510069" sparseCutoff="1.0000000000000000"/>
      <sparseX i="271" alpha="-3513.2867181774141" sparseCutoff="1.0000000000000000"/>
      <sparseX i="272" alpha="1937.1330835141441" sparseCutoff="1.0000000000000000"/>
      <sparseX i="273" alpha="-1668.0264459204989" sparseCutoff="1.0000000000000000"/>
      <sparseX i="274" alpha="-44383.598705083357" sparseCutoff="1.0000000000000000"/>
      <sparseX i="275" alpha="-8834.1575434590668" sparseCutoff="1.0000000000000000"/>
      <sparseX i="276" alpha="38092.465889083083" sparseCutoff="1.0000000000000000"/>
      <sparseX i="277" alpha="112700.84366225022" sparseCutoff="1.0000000000000000"/>
      <sparseX i="278" alpha="50644.759659156429" sparseCutoff="1.0000000000000000"/>
      <sparseX i="279" alpha="578.64320502986959" sparseCutoff="1.0000000000000000"/>
      <sparseX i="280" alpha="-45.045696270176279" sparseCutoff="1.0000000000000000"/>
      <sparseX i="281" alpha="-2277.1289895274458" sparseCutoff="1.0000000000000000"/>
      <sparseX i="282" alpha="2123.1115763687740" sparseCutoff="1.0000000000000000"/>
      <sparseX i="283" alpha="-95.790905210852756" sparseCutoff="1.0000000000000000"/>
      <sparseX i="284" alpha="86.093553123590354" sparseCutoff="1.0000000000000000"/>
      <sparseX i="285" alpha="-61.155834234881063" sparseCutoff="1.0000000000000000"/>
      <sparseX i="286" alpha="-36.785563312025538" sparseCutoff="1.0000000000000000"/>
      <sparseX i="287" alpha="-111.11313222691268" sparseCutoff="1.0000000000000000"/>
      <sparseX i="288" alpha="343.72028573101215" sparseCutoff="1.0000000000000000"/>
      <sparseX i="289" alpha="-71.528275566401135" sparseCutoff="1.0000000000000000"/>
      <sparseX i="290" alpha="118.52769475652003" sparseCutoff="1.0000000000000000"/>
      <sparseX i="291" alpha="43.877078788850085" sparseCutoff="1.0000000000000000"/>
      <sparseX i="292" alpha="-2.1630952315028371" sparseCutoff="1.0000000000000000"/>
      <sparseX i="293" alpha="59.309150238363955" sparseCutoff="1.0000000000000000"/>
      <sparseX i="294" alpha="-115.11017908021458" sparseCutoff="1.0000000000000000"/>
      <sparseX i="295" alpha="-91.503742125482816" sparseCutoff="1.0000000000000000"/>
      <sparseX i="296" alpha="37.185241420380656" sparseCutoff="1.0000000000000000"/>
      <sparseX i="297" alpha="-47.632098529438444" sparseCutoff="1.0000000000000000"/>
      <sparseX i="298" alpha="-100.17211666865535" sparseCutoff="1.0000000000000000"/>
      <sparseX i="299" alpha="-26.816924992558587" sparseCutoff="1.0000000000000000"/>
      <sparseX i="300" alpha="70.989441578951073" sparseCutoff="1.0000000000000000"/>
      <sparseX i="301" alpha="12.166606244939757" sparseCutoff="1.0000000000000000"/>
      <sparseX i="302" alpha="-38.727747935885787" sparseCutoff="1.0000000000000000"/>
      <sparseX i="303" alpha="121.61028660643724" sparseCutoff="1.0000000000000000"/>
      <sparseX i="304" alpha="-2.4123002937484324" sparseCutoff="1.0000000000000000"/>
      <sparseX i="305" alpha="17.715304647423519" sparseCutoff="1.0000000000000000"/>
      <sparseX i="306" alpha="52.172864928722930" sparseCutoff="1.0000000000000000"/>
      <sparseX i="307" alpha="-2433.7257698724898" sparseCutoff="1.0000000000000000"/>
      <sparseX i="308" alpha="1138.7018774157214" sparseCutoff="1.0000000000000000"/>
      <sparseX i="309" alpha="3701.2223178248955" sparseCutoff="1.0000000000000000"/>
      <sparseX i="310" alpha="33403.574683822611" sparseCutoff="1.0000000000000000"/>
      <sparseX i="311" alpha="-21602.550714612760" sparseCutoff="1.0000000000000000"/>
      <sparseX i="312" alpha="604.12510868393736" sparseCutoff="1.0000000000000000"/>
      <sparseX i="313" alpha="3377.3979014194306" sparseCutoff="1.0000000000000000"/>
      <sparseX i="314" alpha="-2186.4003938641108" sparseCutoff="1.0000000000000000"/>
      <sparseX i="315" alpha="-1517.1467922159527" sparseCutoff="1.0000000000000000"/>
      <sparseX i="316" alpha="-1075.9985441968533" sparseCutoff="1.0000000000000000"/>
      <sparseX i="317" alpha="-3498.7326370381302" sparseCutoff="1.0000000000000000"/>
      <sparseX i="318" alpha="-1712.5908449749147" sparseCutoff="1.0000000000000000"/>
      <sparseX i="319" alpha="398.44611496035799" sparseCutoff="1.0000000000000000"/>
      <sparseX i="320" alpha="-810.20892132625727" sparseCutoff="1.0000000000000000"/>
      <sparseX i="321" alpha="26410.724852044306" sparseCutoff="1.0000000000000000"/>
      <sparseX i="322" alpha="132712.47720694559" sparseCutoff="1.0000000000000000"/>
      <sparseX i="323" alpha="442.50018800698916" sparseCutoff="1.0000000000000000"/>
      <sparseX i="324" alpha="-6561.5470847173165" sparseCutoff="1.0000000000000000"/>
      <sparseX i="325" alpha="-153.10193173106057" sparseCutoff="1.0000000000000000"/>
      <sparseX i="326" alpha="755.83376410046174" sparseCutoff="1.0000000000000000"/>
      <sparseX i="327" alpha="10181.821484145938" sparseCutoff="1.0000000000000000"/>
      <sparseX i="328" alpha="12115.745779013270" sparseCutoff="1.0000000000000000"/>
      <sparseX i="329" alpha="-323.64269882139297" sparseCutoff="1.0000000000000000"/>
      <sparseX i="330" alpha="23.204961508907484" sparseCutoff="1.0000000000000000"/>
      <sparseX i="331" alpha="85.309174986767744" sparseCutoff="1.0000000000000000"/>
      <sparseX i="332" alpha="-144.60190430686919" sparseCutoff="1.0000000000000000"/>
      <sparseX i="333" alpha="-37.970629130347447" sparseCutoff="1.0000000000000000"/>
      <sparseX i="334" alpha="33.322612498131264" sparseCutoff="1.0000000000000000"/>
      <sparseX i="335" alpha="94.654393012865555" sparseCutoff="1.0000000000000000"/>
      <sparseX i="336" alpha="-29.417420075134757" sparseCutoff="1.0000000000000000"/>
      <sparseX i="337" alpha="28.336028396064993" sparseCutoff="1.0000000000000000"/>
      <sparseX i="338" alpha="60.920086503921183" sparseCutoff="1.0000000000000000"/>
      <sparseX i="339" alpha="61.735177722650505" sparseCutoff="1.0000000000000000"/>
      <sparseX i="340" alpha="-10.085792171292415" sparseCutoff="1.0000000000000000"/>
      <sparseX i="341" alpha="2121.8942081695072" sparseCutoff="1.0000000000000000"/>
      <sparseX i="342" alpha="-4149.2325008555781" sparseCutoff="1.0000000000000000"/>
      <sparseX i="343" alpha="14231.645612826554" sparseCutoff="1.0000000000000000"/>
      <sparseX i="344" alpha="1849.8634268184674" sparseCutoff="1.0000000000000000"/>
      <sparseX i="345" alpha="-1080.5080815517788" sparseCutoff="1.0000000000000000"/>
      <sparseX i="346" alpha="1474.2712471731240" sparseCutoff="1.0000000000000000"/>
      <sparseX i="347" alpha="-2413.3551619819250" sparseCutoff="1.0000000000000000"/>
      <sparseX i="348" alpha="-286.59214524733130" sparseCutoff="1.0000000000000000"/>
      <sparseX i="349" alpha="-1231.3292782432941" sparseCutoff="1.0000000000000000"/>
      <sparseX i="350" alpha="-715.58061936582635" sparseCutoff="1.0000000000000000"/>
      <sparseX i="351" alpha="446.85998828368247" sparseCutoff="1.0000000000000000"/>
      <sparseX i="352" alpha="-1996.5857366966682" sparseCutoff="1.0000000000000000"/>
      <sparseX i="353" alpha="474.87817281443046" sparseCutoff="1.0000000000000000"/>
      <sparseX i="354" alpha="-1916.8610331663642" sparseCutoff="1.0000000000000000"/>
      <sparseX i="355" alpha="-1423.3566664157884" sparseCutoff="1.0000000000000000"/>
      <sparseX i="356" alpha="-1019.4484028447424" sparseCutoff="1.0000000000000000"/>
      <sparseX i="357" alpha="-568.78883749107763" sparseCutoff="1.0000000000000000"/>
      <sparseX i="358" alpha="-570.99290328090319" sparseCutoff="1.0000000000000000"/>
      <sparseX i="359" alpha="-833.87497247486499" sparseCutoff="1.0000000000000000"/>
      <sparseX i="360" alpha="-13432.327918839208" sparseCutoff="1.0000000000000000"/>
      <sparseX i="361" alpha="-36391.437917623261" sparseCutoff="1.0000000000000000"/>
      <sparseX i="362" alpha="57339.270961392816" sparseCutoff="1.0000000000000000"/>
      <sparseX i="363" alpha="-13612.888134766206" sparseCutoff="1.0000000000000000"/>
      <sparseX i="364" alpha="2085.9432342331720" sparseCutoff="1.0000000000000000"/>
      <sparseX i="365" alpha="-1984.3211402614959" sparseCutoff="1.0000000000000000"/>
      <sparseX i="366" alpha="530.09187516918769" sparseCutoff="1.0000000000000000"/>
      <sparseX i="367" alpha="-4255.7461545422193" sparseCutoff="1.0000000000000000"/>
      <sparseX i="368" alpha="-852.11040273708045" sparseCutoff="1.0000000000000000"/>
      <sparseX i="369" alpha="17222.541749108463" sparseCutoff="1.0000000000000000"/>
      <sparseX i="370" alpha="-5973.5076078011052" sparseCutoff="1.0000000000000000"/>
      <sparseX i="371" alpha="-21158.652967672191" sparseCutoff="1.0000000000000000"/>
      <sparseX i="372" alpha="10522.109645263514" sparseCutoff="1.0000000000000000"/>
      <sparseX i="373" alpha="90.334365795499465" sparseCutoff="1.0000000000000000"/>
      <sparseX i="374" alpha="-151.72181441494706" sparseCutoff="1.0000000000000000"/>
      <sparseX i="375" alpha="-91.551344668015858" sparseCutoff="1.0000000000000000"/>
      <sparseX i="376" alpha="40.809891912533729" sparseCutoff="1.0000000000000000"/>
      <sparseX i="377" alpha="685.74861890604029" sparseCutoff="1.0000000000000000"/>
      <sparseX i="378" alpha="-59.479760238791371" sparseCutoff="1.0000000000000000"/>
      <sparseX i="379" alpha="155.43173655429214" sparseCutoff="1.0000000000000000"/>
      <sparseX i="380" alpha="56.097078690197570" sparseCutoff="1.0000000000000000"/>
      <sparseX i="381" alpha="-36.471094393970617" sparseCutoff="1.0000000000000000"/>
      <sparseX i="382" alpha="12.727844814061815" sparseCutoff="1.0000000000000000"/>
      <sparseX i="383" alpha="81.274180193949277" sparseCutoff="1.0000000000000000"/>
      <sparseX i="384" alpha="37.425773936585180" sparseCutoff="1.0000000000000000"/>
      <sparseX i="385" alpha="125.01734191659909" sparseCutoff="1.0000000000000000"/>
      <sparseX i="386" alpha="-51.828153812983182" sparseCutoff="1.0000000000000000"/>
      <sparseX i="387" alpha="-70.832663960016490" sparseCutoff="1.0000000000000000"/>
      <sparseX i="388" alpha="-734.61594583784574" sparseCutoff="1.0000000000000000"/>
      <sparseX i="389" alpha="284.80924089009255" sparseCutoff="1.0000000000000000"/>
      <sparseX i="390" alpha="9521.8582477873842" sparseCutoff="1.0000000000000000"/>
      <sparseX i="391" alpha="-31596.349332184636" sparseCutoff="1.0000000000000000"/>
      <sparseX i="392" alpha="-76364.099656624356" sparseCutoff="1.0000000000000000"/>
      <sparseX i="393" alpha="-82378.355830469984" sparseCutoff="1.0000000000000000"/>
      <sparseX i="394" alpha="17173.495044905725" sparseCutoff="1.0000000000000000"/>
      <sparseX i="395" alpha="-2846.8515186661330" sparseCutoff="1.0000000000000000"/>
      <sparseX i="396" alpha="-1503.7591889120549" sparseCutoff="1.0000000000000000"/>
      <sparseX i="397" alpha="1573.0745584723279" sparseCutoff="1.0000000000000000"/>
      <sparseX i="398" alpha="-1131.4291364414953" sparseCutoff="1.0000000000000000"/>
      <sparseX i="399" alpha="-1908.9770289894254" sparseCutoff="1.0000000000000000"/>
      <sparseX i="400" alpha="1325.5824141729895" sparseCutoff="1.0000000000000000"/>
      <sparseX i="401" alpha="2109.9912412160156" sparseCutoff="1.0000000000000000"/>
      <sparseX i="402" alpha="3300.1501442968538" sparseCutoff="1.0000000000000000"/>
      <sparseX i="403" alpha="-818.72493724031074" sparseCutoff="1.0000000000000000"/>
      <sparseX i="404" alpha="-1319.5948299911167" sparseCutoff="1.0000000000000000"/>
      <sparseX i="405" alpha="-768.79844425188321" sparseCutoff="1.0000000000000000"/>
      <sparseX i="406" alpha="-1354.2052459295464" sparseCutoff="1.0000000000000000"/>
      <sparseX i="407" alpha="784.31176431736594" sparseCutoff="1.0000000000000000"/>
      <sparseX i="408" alpha="-14981.915708788521" sparseCutoff="1.0000000000000000"/>
      <sparseX i="409" alpha="-42297.996432752909" sparseCutoff="1.0000000000000000"/>
      <sparseX i="410" alpha="-77672.639998420302" sparseCutoff="1.0000000000000000"/>
      <sparseX i="411" alpha="-13513.563079729260" sparseCutoff="1.0000000000000000"/>
      <sparseX i="412" alpha="-21518.766273989211" sparseCutoff="1.0000000000000000"/>
      <sparseX i="413" alpha="-42112.898353338933" sparseCutoff="1.0000000000000000"/>
      <sparseX i="414" alpha="18969.560677123201" sparseCutoff="1.0000000000000000"/>
      <sparseX i="415" alpha="12904.644962109087" sparseCutoff="1.0000000000000000"/>
      <sparseX i="416" alpha="89853.309908474839" sparseCutoff="1.0000000000000000"/>
      <sparseX i="417" alpha="970.80447116066284" sparseCutoff="1.0000000000000000"/>
      <sparseX i="418" alpha="185.40386851360094" sparseCutoff="1.0000000000000000"/>
      <sparseX i="419" alpha="-1673.6760834694442" sparseCutoff="1.0000000000000000"/>
      <sparseX i="420" alpha="5959.6053572131450" sparseCutoff="1.0000000000000000"/>
      <sparseX i="421" alpha="6112.9223303409599" sparseCutoff="1.0000000000000000"/>
      <sparseX i="422" alpha="15004.536409194718" sparseCutoff="1.0000000000000000"/>
      <sparseX i="423" alpha="-162.97610988694896" sparseCutoff="1.0000000000000000"/>
      <sparseX i="424" alpha="-41.860447373510333" sparseCutoff="1.0000000000000000"/>
      <sparseX i="425" alpha="-504.49879582823144" sparseCutoff="1.0000000000000000"/>
      <sparseX i="426" alpha="73.752785722943344" sparseCutoff="1.0000000000000000"/>
      <sparseX i="427" alpha="-287.50131123882352" sparseCutoff="1.0000000000000000"/>
      <sparseX i="428" alpha="-484.69836948964667" sparseCutoff="1.0000000000000000"/>
      <sparseX i="429" alpha="45.091968058390727" sparseCutoff="1.0000000000000000"/>
      <sparseX i="430" alpha="7.7286283740815396" sparseCutoff="1.0000000000000000"/>
      <sparseX i="431" alpha="-14.740451713173874" sparseCutoff="1.0000000000000000"/>
      <sparseX i="432" alpha="-29.447779713075402" sparseCutoff="1.0000000000000000"/>
      <sparseX i="433" alpha="424.76125101137427" sparseCutoff="1.0000000000000000"/>
      <sparseX i="434" alpha="75.111240602660772" sparseCutoff="1.0000000000000000"/>
      <sparseX i="435" alpha="52.355478263334824" sparseCutoff="1.0000000000000000"/>
      <sparseX i="436" alpha="54.653881949749575" sparseCutoff="1.0000000000000000"/>
      <sparseX i="437" alpha="-37.895640927847474" sparseCutoff="1.0000000000000000"/>
      <sparseX i="438" alpha="-102.88852402827924" sparseCutoff="1.0000000000000000"/>
      <sparseX i="439" alpha="-82.650810238548814" sparseCutoff="1.0000000000000000"/>
      <sparseX i="440" alpha="-6067.0904976548109" sparseCutoff="1.0000000000000000"/>
      <sparseX i="441" alpha="627.57233723065690" sparseCutoff="1.0000000000000000"/>
      <sparseX i="442" alpha="-283.67253302331460" sparseCutoff="1.0000000000000000"/>
      <sparseX i="443" alpha="-562.19723928322367" sparseCutoff="1.0000000000000000"/>
      <sparseX i="444" alpha="275.07782311453076" sparseCutoff="1.0000000000000000"/>
      <sparseX i="445" alpha="-627.52812260120504" sparseCutoff="1.0000000000000000"/>
      <sparseX i="446" alpha="-4104.7938736740998" sparseCutoff="1.0000000000000000"/>
      <sparseX i="447" alpha="8055.8017922785102" sparseCutoff="1.0000000000000000"/>
      <sparseX i="448" alpha="68.510385253056938" sparseCutoff="1.0000000000000000"/>
      <sparseX i="449" alpha="636.31876402223418" sparseCutoff="1.0000000000000000"/>
      <sparseX i="450" alpha="-54.120851585916419" sparseCutoff="1.0000000000000000"/>
      <sparseX i="451" alpha="-1099.8857418972013" sparseCutoff="1.0000000000000000"/>
      <sparseX i="452" alpha="-2128.4369932120462" sparseCutoff="1.0000000000000000"/>
      <sparseX i="453" alpha="3694.2674272604904" sparseCutoff="1.0000000000000000"/>
      <sparseX i="454" alpha="-769.74622602580007" sparseCutoff="1.0000000000000000"/>
      <sparseX i="455" alpha="-5773.0919860700669" sparseCutoff="1.0000000000000000"/>
      <sparseX i="456" alpha="12710.400007780821" sparseCutoff="1.0000000000000000"/>
      <sparseX i="457" alpha="8417.0335717155867" sparseCutoff="1.0000000000000000"/>
      <sparseX i="458" alpha="-35452.864430340866" sparseCutoff="1.0000000000000000"/>
      <sparseX i="459" alpha="34384.724716157747" sparseCutoff="1.0000000000000000"/>
      <sparseX i="460" alpha="6593.4707135588833" sparseCutoff="1.0000000000000000"/>
      <sparseX i="461" alpha="75071.923788380896" sparseCutoff="1.0000000000000000"/>
      <sparseX i="462" alpha="3413.0295380777779" sparseCutoff="1.0000000000000000"/>
      <sparseX i="463" alpha="-1.1129566962330739" sparseCutoff="1.0000000000000000"/>
      <sparseX i="464" alpha="-14.204784702712082" sparseCutoff="1.0000000000000000"/>
      <sparseX i="465" alpha="-101.21928666346693" sparseCutoff="1.0000000000000000"/>
      <sparseX i="466" alpha="-81.764488707687789" sparseCutoff="1.0000000000000000"/>
      <sparseX i="467" alpha="179.87914138243480" sparseCutoff="1.0000000000000000"/>
      <sparseX i="468" alpha="-34.705447740827580" sparseCutoff="1.0000000000000000"/>
      <sparseX i="469" alpha="110.82513619013767" sparseCutoff="1.0000000000000000"/>
      <sparseX i="470" alpha="-75.794501168028759" sparseCutoff="1.0000000000000000"/>
      <sparseX i="471" alpha="-28.862767019617792" sparseCutoff="1.0000000000000000"/>
      <sparseX i="472" alpha="-41.894345191861795" sparseCutoff="1.0000000000000000"/>
      <sparseX i="473" alpha="106.59746157631649" sparseCutoff="1.0000000000000000"/>
      <sparseX i="474" alpha="10987.551676949521" sparseCutoff="1.0000000000000000"/>
      <sparseX i="475" alpha="3400.2951369326197" sparseCutoff="1.0000000000000000"/>
      <sparseX i="476" alpha="490.79698586068338" sparseCutoff="1.0000000000000000"/>
      <sparseX i="477" alpha="249.22029150154967" sparseCutoff="1.0000000000000000"/>
      <sparseX i="478" alpha="386.71181532727974" sparseCutoff="1.0000000000000000"/>
      <sparseX i="479" alpha="-4084.7780174372961" sparseCutoff="1.0000000000000000"/>
      <sparseX i="480" alpha="3547.2254493335267" sparseCutoff="1.0000000000000000"/>
      <sparseX i="481" alpha="59152.382827044974" sparseCutoff="1.0000000000000000"/>
      <sparseX i="482" alpha="-59361.956616677104" sparseCutoff="1.0000000000000000"/>
      <sparseX i="483" alpha="80043.213254054514" sparseCutoff="1.0000000000000000"/>
      <sparseX i="484" alpha="98480.539187290618" sparseCutoff="1.0000000000000000"/>
      <sparseX i="485" alpha="12339.822561953475" sparseCutoff="1.0000000000000000"/>
      <sparseX i="486" alpha="4047.4645900435726" sparseCutoff="1.0000000000000000"/>
      <sparseX i="487" alpha="4853.7498832622059" sparseCutoff="1.0000000000000000"/>
      <sparseX i="488" alpha="-759.43993535233244" sparseCutoff="1.0000000000000000"/>
      <sparseX i="489" alpha="-2719.3455510485883" sparseCutoff="1.0000000000000000"/>
      <sparseX i="490" alpha="460.67415783368006" sparseCutoff="1.0000000000000000"/>
      <sparseX i="491" alpha="2246.7076555329181" sparseCutoff="1.0000000000000000"/>
      <sparseX i="492" alpha="1135.5238936779429" sparseCutoff="1.0000000000000000"/>
      <sparseX i="493" alpha="416.02414306937129" sparseCutoff="1.0000000000000000"/>
      <sparseX i="494" alpha="-5386.6171966854090" sparseCutoff="1.0000000000000000"/>
      <sparseX i="495" alpha="1564.5080862803638" sparseCutoff="1.0000000000000000"/>
      <sparseX i="496" alpha="9193.2477771075264" sparseCutoff="1.0000000000000000"/>
      <sparseX i="497" alpha="75088.471683954005" sparseCutoff="1.0000000000000000"/>
      <sparseX i="498" alpha="-134178.58822616952" sparseCutoff="1.0000000000000000"/>
      <sparseX i="499" alpha="-78815.456507586539" sparseCutoff="1.0000000000000000"/>
      <sparseX i="500" alpha="-44203.244714448861" sparseCutoff="1.0000000000000000"/>
      <sparseX i="501" alpha="26866.930857938616" sparseCutoff="1.0000000000000000"/>
      <sparseX i="502" alpha="475.54939963866889" sparseCutoff="1.0000000000000000"/>
      <sparseX i="503" alpha="-127.76301123916480" sparseCutoff="1.0000000000000000"/>
      <sparseX i="504" alpha="38.792704596713918" sparseCutoff="1.0000000000000000"/>
      <sparseX i="505" alpha="75.347071946330004" sparseCutoff="1.0000000000000000"/>
      <sparseX i="506" alpha="-74.985660090506670" sparseCutoff="1.0000000000000000"/>
      <sparseX i="507" alpha="-3545.2301922691809" sparseCutoff="1.0000000000000000"/>
      <sparseX i="508" alpha="95130.111816725010" sparseCutoff="1.0000000000000000"/>
      <sparseX i="509" alpha="-90732.325017329611" sparseCutoff="1.0000000000000000"/>
      <sparseX i="510" alpha="-103953.53904886890" sparseCutoff="1.0000000000000000"/>
      <sparseX i="511" alpha="519.35744994806430" sparseCutoff="1.0000000000000000"/>
      <sparseX i="512" alpha="-87.893565917312927" sparseCutoff="1.0000000000000000"/>
      <sparseX i="513" alpha="165.19924485969651" sparseCutoff="1.0000000000000000"/>
      <sparseX i="514" alpha="574.63978118660737" sparseCutoff="1.0000000000000000"/>
      <sparseX i="515" alpha="2043.1767777938699" sparseCutoff="1.0000000000000000"/>
      <sparseX i="516" alpha="-811.35245753485515" sparseCutoff="1.0000000000000000"/>
      <sparseX i="517" alpha="219.93553333419766" sparseCutoff="1.0000000000000000"/>
      <sparseX i="518" alpha="-5981.6267696387977" sparseCutoff="1.0000000000000000"/>
      <sparseX i="519" alpha="-4828.5389985349393" sparseCutoff="1.0000000000000000"/>
      <sparseX i="520" alpha="-66254.906397981918" sparseCutoff="1.0000000000000000"/>
      <sparseX i="521" alpha="1025.1949075961620" sparseCutoff="1.0000000000000000"/>
      <sparseX i="522" alpha="-1013.1012397898066" sparseCutoff="1.0000000000000000"/>
      <sparseX i="523" alpha="-120.25421603561995" sparseCutoff="1.0000000000000000"/>
      <sparseX i="524" alpha="1206.8250675636737" sparseCutoff="1.0000000000000000"/>
      <sparseX i="525" alpha="-9750.8831073025067" sparseCutoff="1.0000000000000000"/>
      <sparseX i="526" alpha="3206.9113504537390" sparseCutoff="1.0000000000000000"/>
      <sparseX i="527" alpha="212.55408269583774" sparseCutoff="1.0000000000000000"/>
      <sparseX i="528" alpha="-488.60425209421152" sparseCutoff="1.0000000000000000"/>
      <sparseX i="529" alpha="214.03247677766385" sparseCutoff="1.0000000000000000"/>
      <sparseX i="530" alpha="13.156665139865339" sparseCutoff="1.0000000000000000"/>
      <sparseX i="531" alpha="11.915479200652015" sparseCutoff="1.0000000000000000"/>
      <sparseX i="532" alpha="-42.738351630682352" sparseCutoff="1.0000000000000000"/>
      <sparseX i="533" alpha="8288.8330329062464" sparseCutoff="1.0000000000000000"/>
      <sparseX i="534" alpha="-1011.5885798225277" sparseCutoff="1.0000000000000000"/>
      <sparseX i="535" alpha="-41172.170069540240" sparseCutoff="1.0000000000000000"/>
      <sparseX i="536" alpha="52461.462633014846" sparseCutoff="1.0000000000000000"/>
      <sparseX i="537" alpha="78066.622792942973" sparseCutoff="1.0000000000000000"/>
      <sparseX i="538" alpha="-41065.427308426741" sparseCutoff="1.0000000000000000"/>
      <sparseX i="539" alpha="27095.603863277836" sparseCutoff="1.0000000000000000"/>
      <sparseX i="540" alpha="550.32286164789355" sparseCutoff="1.0000000000000000"/>
      <sparseX i="541" alpha="558.24336469181833" sparseCutoff="1.0000000000000000"/>
      <sparseX i="542" alpha="-3862.1091699992435" sparseCutoff="1.0000000000000000"/>
      <sparseX i="543" alpha="1724.3571319766845" sparseCutoff="1.0000000000000000"/>
      <sparseX i="544" alpha="81118.535872046457" sparseCutoff="1.0000000000000000"/>
      <sparseX i="545" alpha="-647.67154895921124" sparseCutoff="1.0000000000000000"/>
      <sparseX i="546" alpha="-70947.560728432960" sparseCutoff="1.0000000000000000"/>
      <sparseX i="547" alpha="2220.7637595206370" sparseCutoff="1.0000000000000000"/>
      <sparseX i="548" alpha="-2.6410716489501476" sparseCutoff="1.0000000000000000"/>
      <sparseX i="549" alpha="210.05380029876019" sparseCutoff="1.0000000000000000"/>
      <sparseX i="550" alpha="-165.71768146287101" sparseCutoff="1.0000000000000000"/>
      <sparseX i="551" alpha="-129.27919625739287" sparseCutoff="1.0000000000000000"/>
      <sparseX i="552" alpha="-79.816075294752466" sparseCutoff="1.0000000000000000"/>
      <sparseX i="553" alpha="-212.54841324160896" sparseCutoff="1.0000000000000000"/>
      <sparseX i="554" alpha="-239.35460767741344" sparseCutoff="1.0000000000000000"/>
      <sparseX i="555" alpha="-190.71377989251818" sparseCutoff="1.0000000000000000"/>
      <sparseX i="556" alpha="-164.55149784251205" sparseCutoff="1.0000000000000000"/>
      <sparseX i="557" alpha="-3531.7090075894935" sparseCutoff="1.0000000000000000"/>
      <sparseX i="558" alpha="742.09412536964169" sparseCutoff="1.0000000000000000"/>
      <sparseX i="559" alpha="-14923.394329060713" sparseCutoff="1.0000000000000000"/>
      <sparseX i="560" alpha="-3374.3024724948323" sparseCutoff="1.0000000000000000"/>
      <sparseX i="561" alpha="4580.9967666789780" sparseCutoff="1.0000000000000000"/>
      <sparseX i="562" alpha="9029.6401512445445" sparseCutoff="1.0000000000000000"/>
      <sparseX i="563" alpha="44161.666896351868" sparseCutoff="1.0000000000000000"/>
      <sparseX i="564" alpha="30497.666354830650" sparseCutoff="1.0000000000000000"/>
      <sparseX i="565" alpha="-529.21387779819986" sparseCutoff="1.0000000000000000"/>
      <sparseX i="566" alpha="-1722.3497851256609" sparseCutoff="1.0000000000000000"/>
      <sparseX i="567" alpha="323.81332260530104" sparseCutoff="1.0000000000000000"/>
      <sparseX i="568" alpha="-12200.636436507219" sparseCutoff="1.0000000000000000"/>
      <sparseX i="569" alpha="-45590.630907012150" sparseCutoff="1.0000000000000000"/>
      <sparseX i="570" alpha="-39429.029602614057" sparseCutoff="1.0000000000000000"/>
      <sparseX i="571" alpha="-9694.8413256853983" sparseCutoff="1.0000000000000000"/>
      <sparseX i="572" alpha="-5419.9015271883254" sparseCutoff="1.0000000000000000"/>
      <sparseX i="573" alpha="48498.080807043239" sparseCutoff="1.0000000000000000"/>
      <sparseX i="574" alpha="47224.775798374023" sparseCutoff="1.0000000000000000"/>
      <sparseX i="575" alpha="-10510.317414876863" sparseCutoff="1.0000000000000000"/>
      <sparseX i="576" alpha="1992.0959826942117" sparseCutoff="1.0000000000000000"/>
      <sparseX i="577" alpha="409.30453502774787" sparseCutoff="1.0000000000000000"/>
      <sparseX i="578" alpha="1039.5291876564218" sparseCutoff="1.0000000000000000"/>
      <sparseX i="579" alpha="17.854772619425550" sparseCutoff="1.0000000000000000"/>
      <sparseX i="580" alpha="283.25630654799750" sparseCutoff="1.0000000000000000"/>
      <sparseX i="581" alpha="-13147.592954466127" sparseCutoff="1.0000000000000000"/>
      <sparseX i="582" alpha="-36612.673539662872" sparseCutoff="1.0000000000000000"/>
      <sparseX i="583" alpha="-122.70243043139448" sparseCutoff="1.0000000000000000"/>
      <sparseX i="584" alpha="14.245751236270621" sparseCutoff="1.0000000000000000"/>
      <sparseX i="585" alpha="248.62646862135577" sparseCutoff="1.0000000000000000"/>
      <sparseX i="586" alpha="60.997281948963028" sparseCutoff="1.0000000000000000"/>
      <sparseX i="587" alpha="326.33996652237545" sparseCutoff="1.0000000000000000"/>
      <sparseX i="588" alpha="1413.0027392246996" sparseCutoff="1.0000000000000000"/>
      <sparseX i="589" alpha="-23330.580334514812" sparseCutoff="1.0000000000000000"/>
      <sparseX i="590" alpha="1415.5258844561858" sparseCutoff="1.0000000000000000"/>
      <sparseX i="591" alpha="2968.2888561982813" sparseCutoff="1.0000000000000000"/>
      <sparseX i="592" alpha="-1560.5816313468126" sparseCutoff="1.0000000000000000"/>
      <sparseX i="593" alpha="22218.959097867832" sparseCutoff="1.0000000000000000"/>
      <sparseX i="594" alpha="-44084.499309975290" sparseCutoff="1.0000000000000000"/>
      <sparseX i="595" alpha="2136.7217779541957" sparseCutoff="1.0000000000000000"/>
      <sparseX i="596" alpha="772.87028478842240" sparseCutoff="1.0000000000000000"/>
      <sparseX i="597" alpha="-4890.1384520410493" sparseCutoff="1.0000000000000000"/>
      <sparseX i="598" alpha="352.44685508645580" sparseCutoff="1.0000000000000000"/>
      <sparseX i="599" alpha="1225.4419834565090" sparseCutoff="1.0000000000000000"/>
      <sparseX i="600" alpha="-91.810324152026737" sparseCutoff="1.0000000000000000"/>
      <sparseX i="601" alpha="-1548.9418473873468" sparseCutoff="1.0000000000000000"/>
      <sparseX i="602" alpha="1957.3410871235142" sparseCutoff="1.0000000000000000"/>
      <sparseX i="603" alpha="-1066.7535317730483" sparseCutoff="1.0000000000000000"/>
      <sparseX i="604" alpha="-32206.080892314341" sparseCutoff="1.0000000000000000"/>
      <sparseX i="605" alpha="-959.14306114102396" sparseCutoff="1.0000000000000000"/>
      <sparseX i="606" alpha="-1682.7240924777493" sparseCutoff="1.0000000000000000"/>
      <sparseX i="607" alpha="-15260.751871310993" sparseCutoff="1.0000000000000000"/>
      <sparseX i="608" alpha="17092.331110395884" sparseCutoff="1.0000000000000000"/>
      <sparseX i="609" alpha="-82.873129526269182" sparseCutoff="1.0000000000000000"/>
      <sparseX i="610" alpha="193.22763845680046" sparseCutoff="1.0000000000000000"/>
      <sparseX i="611" alpha="262.70698609640533" sparseCutoff="1.0000000000000000"/>
      <sparseX i="612" alpha="-251.34847101989664" sparseCutoff="1.0000000000000000"/>
      <sparseX i="613" alpha="-100.70277099046973" sparseCutoff="1.0000000000000000"/>
      <sparseX i="614" alpha="-7735.0954043891352" sparseCutoff="1.0000000000000000"/>
      <sparseX i="615" alpha="-39400.512753665280" sparseCutoff="1.0000000000000000"/>
      <sparseX i="616" alpha="-11845.132365206677" sparseCutoff="1.0000000000000000"/>
      <sparseX i="617" alpha="-40966.768209615533" sparseCutoff="1.0000000000000000"/>
      <sparseX i="618" alpha="15.547906458350804" sparseCutoff="1.0000000000000000"/>
      <sparseX i="619" alpha="2730.5180822809639" sparseCutoff="1.0000000000000000"/>
      <sparseX i="620" alpha="788.13193834237120" sparseCutoff="1.0000000000000000"/>
      <sparseX i="621" alpha="-805.52472366014513" sparseCutoff="1.0000000000000000"/>
      <sparseX i="622" alpha="-19.538467463067050" sparseCutoff="1.0000000000000000"/>
      <sparseX i="623" alpha="-6.5758343413801121" sparseCutoff="1.0000000000000000"/>
      <sparseX i="624" alpha="-4056.6400669589220" sparseCutoff="1.0000000000000000"/>
      <sparseX i="625" alpha="652.13979458891936" sparseCutoff="1.0000000000000000"/>
      <sparseX i="626" alpha="2806.1252044552798" sparseCutoff="1.0000000000000000"/>
      <sparseX i="627" alpha="-1890.9428779917184" sparseCutoff="1.0000000000000000"/>
      <sparseX i="628" alpha="-634.46638312626612" sparseCutoff="1.0000000000000000"/>
      <sparseX i="629" alpha="37079.021227562298" sparseCutoff="1.0000000000000000"/>
      <sparseX i="630" alpha="-56630.544065292866" sparseCutoff="1.0000000000000000"/>
      <sparseX i="631" alpha="-15340.220407686911" sparseCutoff="1.0000000000000000"/>
      <sparseX i="632" alpha="-14452.319026373934" sparseCutoff="1.0000000000000000"/>
      <sparseX i="633" alpha="7457.8405939494578" sparseCutoff="1.0000000000000000"/>
      <sparseX i="634" alpha="51.331610583073015" sparseCutoff="1.0000000000000000"/>
      <sparseX i="635" alpha="-17053.470442017595" sparseCutoff="1.0000000000000000"/>
      <sparseX i="636" alpha="-21506.797993774820" sparseCutoff="1.0000000000000000"/>
      <sparseX i="637" alpha="-8002.1839519577552" sparseCutoff="1.0000000000000000"/>
      <sparseX i="638" alpha="-10.023687376189731" sparseCutoff="1.0000000000000000"/>
      <sparseX i="639" alpha="-164.35210741712660" sparseCutoff="1.0000000000000000"/>
      <sparseX i="640" alpha="-127.69277503018179" sparseCutoff="1.0000000000000000"/>
      <sparseX i="641" alpha="79.103133416273735" sparseCutoff="1.0000000000000000"/>
      <sparseX i="642" alpha="-165.98892136745721" sparseCutoff="1.0000000000000000"/>
      <sparseX i="643" alpha="-245.84102325620663" sparseCutoff="1.0000000000000000"/>
      <sparseX i="644" alpha="324.87956310084707" sparseCutoff="1.0000000000000000"/>
      <sparseX i="645" alpha="-1792.3618123416677" sparseCutoff="1.0000000000000000"/>
      <sparseX i="646" alpha="2965.8956983322532" sparseCutoff="1.0000000000000000"/>
      <sparseX i="647" alpha="24182.386553589080" sparseCutoff="1.0000000000000000"/>
      <sparseX i="648" alpha="-2761.8393316492920" sparseCutoff="1.0000000000000000"/>
      <sparseX i="649" alpha="-18703.689654421112" sparseCutoff="1.0000000000000000"/>
      <sparseX i="650" alpha="-8370.9698224514668" sparseCutoff="1.0000000000000000"/>
      <sparseX i="651" alpha="1376.6372905505264" sparseCutoff="1.0000000000000000"/>
      <sparseX i="652" alpha="-1806.0031074671192" sparseCutoff="1.0000000000000000"/>
      <sparseX i="653" alpha="-2674.2656417385633" sparseCutoff="1.0000000000000000"/>
      <sparseX i="654" alpha="1548.3829875852653" sparseCutoff="1.0000000000000000"/>
      <sparseX i="655" alpha="28194.349593194460" sparseCutoff="1.0000000000000000"/>
      <sparseX i="656" alpha="2102.7116449127720" sparseCutoff="1.0000000000000000"/>
      <sparseX i="657" alpha="-7.5038720732814994" sparseCutoff="1.0000000000000000"/>
      <sparseX i="658" alpha="-3253.1456353332246" sparseCutoff="1.0000000000000000"/>
      <sparseX i="659" alpha="257.86760767722876" sparseCutoff="1.0000000000000000"/>
      <sparseX i="660" alpha="180.65223775199649" sparseCutoff="1.0000000000000000"/>
      <sparseX i="661" alpha="28.939980292350963" sparseCutoff="1.0000000000000000"/>
      <sparseX i="662" alpha="-121.62688135913675" sparseCutoff="1.0000000000000000"/>
      <sparseX i="663" alpha="-90.223844230425243" sparseCutoff="1.0000000000000000"/>
      <sparseX i="664" alpha="2.0484833219200853" sparseCutoff="1.0000000000000000"/>
      <sparseX i="665" alpha="-224.54069321581230" sparseCutoff="1.0000000000000000"/>
      <sparseX i="666" alpha="24.166178830564572" sparseCutoff="1.0000000000000000"/>
      <sparseX i="667" alpha="-10.115504078084536" sparseCutoff="1.0000000000000000"/>
      <sparseX i="668" alpha="-7.9543600736372806" sparseCutoff="1.0000000000000000"/>
      <sparseX i="669" alpha="544.94425958412523" sparseCutoff="1.0000000000000000"/>
      <sparseX i="670" alpha="-2429.2277510650119" sparseCutoff="1.0000000000000000"/>
      <sparseX i="671" alpha="1422.1574938687897" sparseCutoff="1.0000000000000000"/>
      <sparseX i="672" alpha="-1037.6810317377247" sparseCutoff="1.0000000000000000"/>
      <sparseX i="673" alpha="-1953.3971951403933" sparseCutoff="1.0000000000000000"/>
      <sparseX i="674" alpha="3687.2863654557445" sparseCutoff="1.0000000000000000"/>
      <sparseX i="675" alpha="2506.6436371058476" sparseCutoff="1.0000000000000000"/>
      <sparseX i="676" alpha="-7408.1401107001348" sparseCutoff="1.0000000000000000"/>
      <sparseX i="677" alpha="-372.37843456080913" sparseCutoff="1.0000000000000000"/>
      <sparseX i="678" alpha="18.613344205000796" sparseCutoff="1.0000000000000000"/>
      <sparseX i="679" alpha="42.445924356206007" sparseCutoff="1.0000000000000000"/>
      <sparseX i="680" alpha="-3197.6829927691083" sparseCutoff="1.0000000000000000"/>
      <sparseX i="681" alpha="-2683.5812736414682" sparseCutoff="1.0000000000000000"/>
      <sparseX i="682" alpha="-113257.73118289586" sparseCutoff="1.0000000000000000"/>
      <sparseX i="683" alpha="15847.116617618847" sparseCutoff="1.0000000000000000"/>
      <sparseX i="684" alpha="317.68637442985442" sparseCutoff="1.0000000000000000"/>
      <sparseX i="685" alpha="19624.383713684067" sparseCutoff="1.0000000000000000"/>
      <sparseX i="686" alpha="-42297.885836093541" sparseCutoff="1.0000000000000000"/>
      <sparseX i="687" alpha="-61264.700183207300" sparseCutoff="1.0000000000000000"/>
      <sparseX i="688" alpha="-8770.8473670874591" sparseCutoff="1.0000000000000000"/>
      <sparseX i="689" alpha="-2624.1945765416713" sparseCutoff="1.0000000000000000"/>
      <sparseX i="690" alpha="63.100166676495292" sparseCutoff="1.0000000000000000"/>
      <sparseX i="691" alpha="-999.74365049805374" sparseCutoff="1.0000000000000000"/>
      <sparseX i="692" alpha="149.53190766433855" sparseCutoff="1.0000000000000000"/>
      <sparseX i="693" alpha="1649.3585773918974" sparseCutoff="1.0000000000000000"/>
      <sparseX i="694" alpha="41.239614285285640" sparseCutoff="1.0000000000000000"/>
      <sparseX i="695" alpha="15339.661620990299" sparseCutoff="1.0000000000000000"/>
      <sparseX i="696" alpha="9450.0093972250852" sparseCutoff="1.0000000000000000"/>
      <sparseX i="697" alpha="-25.126336389732153" sparseCutoff="1.0000000000000000"/>
      <sparseX i="698" alpha="59.876472693531490" sparseCutoff="1.0000000000000000"/>
      <sparseX i="699" alpha="173.67996953209598" sparseCutoff="1.0000000000000000"/>
      <sparseX i="700" alpha="-33.540721427169835" sparseCutoff="1.0000000000000000"/>
      <sparseX i="701" alpha="-148.22667803680429" sparseCutoff="1.0000000000000000"/>
      <sparseX i="702" alpha="143.05045309920769" sparseCutoff="1.0000000000000000"/>
      <sparseX i="703" alpha="-4.3358870714857467" sparseCutoff="1.0000000000000000"/>
      <sparseX i="704" alpha="-128.95479262332958" sparseCutoff="1.0000000000000000"/>
      <sparseX i="705" alpha="91.895339073853961" sparseCutoff="1.0000000000000000"/>
      <sparseX i="706" alpha="93.475953737804375" sparseCutoff="1.0000000000000000"/>
      <sparseX i="707" alpha="79.475592502553170" sparseCutoff="1.0000000000000000"/>
      <sparseX i="708" alpha="-140.45745726871363" sparseCutoff="1.0000000000000000"/>
      <sparseX i="709" alpha=".80108783466356948" sparseCutoff="1.0000000000000000"/>
      <sparseX i="710" alpha="137.69250358216436" sparseCutoff="1.0000000000000000"/>
      <sparseX i="711" alpha="20.491644843151690" sparseCutoff="1.0000000000000000"/>
      <sparseX i="712" alpha="-886.03221663601312" sparseCutoff="1.0000000000000000"/>
      <sparseX i="713" alpha="-645.90545194513288" sparseCutoff="1.0000000000000000"/>
      <sparseX i="714" alpha="-867.40977237815787" sparseCutoff="1.0000000000000000"/>
      <sparseX i="715" alpha="-8062.2277792278292" sparseCutoff="1.0000000000000000"/>
      <sparseX i="716" alpha="5957.8977886314833" sparseCutoff="1.0000000000000000"/>
      <sparseX i="717" alpha="185.05746672710072" sparseCutoff="1.0000000000000000"/>
      <sparseX i="718" alpha="889.24670735812811" sparseCutoff="1.0000000000000000"/>
      <sparseX i="719" alpha="-4752.2114839489332" sparseCutoff="1.0000000000000000"/>
      <sparseX i="720" alpha="-6876.3374432536057" sparseCutoff="1.0000000000000000"/>
      <sparseX i="721" alpha="-552.57630040750848" sparseCutoff="1.0000000000000000"/>
      <sparseX i="722" alpha="-1618.6396480906169" sparseCutoff="1.0000000000000000"/>
      <sparseX i="723" alpha="586.75270511660369" sparseCutoff="1.0000000000000000"/>
      <sparseX i="724" alpha="185.38025206088403" sparseCutoff="1.0000000000000000"/>
      <sparseX i="725" alpha="-3866.9546788094372" sparseCutoff="1.0000000000000000"/>
      <sparseX i="726" alpha="2507.3301970406255" sparseCutoff="1.0000000000000000"/>
      <sparseX i="727" alpha="-3936.7474709101602" sparseCutoff="1.0000000000000000"/>
      <sparseX i="728" alpha="199.60091280389895" sparseCutoff="1.0000000000000000"/>
      <sparseX i="729" alpha="690.61232506725094" sparseCutoff="1.0000000000000000"/>
      <sparseX i="730" alpha="8383.6505826682987" sparseCutoff="1.0000000000000000"/>
      <sparseX i="731" alpha="26003.558334037378" sparseCutoff="1.0000000000000000"/>
      <sparseX i="732" alpha="15525.608096955051" sparseCutoff="1.0000000000000000"/>
      <sparseX i="733" alpha="20530.202253933378" sparseCutoff="1.0000000000000000"/>
      <sparseX i="734" alpha="-129646.31796584492" sparseCutoff="1.0000000000000000"/>
      <sparseX i="735" alpha="-717.40117750416437" sparseCutoff="1.0000000000000000"/>
      <sparseX i="736" alpha="67.403918809254819" sparseCutoff="1.0000000000000000"/>
      <sparseX i="737" alpha="333.37013420081968" sparseCutoff="1.0000000000000000"/>
      <sparseX i="738" alpha="-243.30162519296746" sparseCutoff="1.0000000000000000"/>
      <sparseX i="739" alpha="-30.767015048192331" sparseCutoff="1.0000000000000000"/>
      <sparseX i="740" alpha="-117.31000454547808" sparseCutoff="1.0000000000000000"/>
      <sparseX i="741" alpha="22.766875980269521" sparseCutoff="1.0000000000000000"/>
      <sparseX i="742" alpha="57.482686828449523" sparseCutoff="1.0000000000000000"/>
      <sparseX i="743" alpha="29.817092761159554" sparseCutoff="1.0000000000000000"/>
      <sparseX i="744" alpha="13.383510068480589" sparseCutoff="1.0000000000000000"/>
      <sparseX i="745" alpha="37.002192014019300" sparseCutoff="1.0000000000000000"/>
      <sparseX i="746" alpha="-39.325592653447551" sparseCutoff="1.0000000000000000"/>
      <sparseX i="747" alpha="-190.95058576504596" sparseCutoff="1.0000000000000000"/>
      <sparseX i="748" alpha="-1482.4946180688667" sparseCutoff="1.0000000000000000"/>
      <sparseX i="749" alpha="-197.71452305101852" sparseCutoff="1.0000000000000000"/>
      <sparseX i="750" alpha="445.04604742593608" sparseCutoff="1.0000000000000000"/>
      <sparseX i="751" alpha="-7439.3883281135386" sparseCutoff="1.0000000000000000"/>
      <sparseX i="752" alpha="3133.7258501895990" sparseCutoff="1.0000000000000000"/>
      <sparseX i="753" alpha="-59541.430950765556" sparseCutoff="1.0000000000000000"/>
      <sparseX i="754" alpha="859.06602827183997" sparseCutoff="1.0000000000000000"/>
      <sparseX i="755" alpha="132.70494685206472" sparseCutoff="1.0000000000000000"/>
      <sparseX i="756" alpha="426.14825786326531" sparseCutoff="1.0000000000000000"/>
      <sparseX i="757" alpha="46298.414266297739" sparseCutoff="1.0000000000000000"/>
      <sparseX i="758" alpha="4972.8333466179074" sparseCutoff="1.0000000000000000"/>
      <sparseX i="759" alpha="-2223.7680551773287" sparseCutoff="1.0000000000000000"/>
      <sparseX i="760" alpha="-54.304264324791106" sparseCutoff="1.0000000000000000"/>
      <sparseX i="761" alpha="-65.725635421539636" sparseCutoff="1.0000000000000000"/>
      <sparseX i="762" alpha="160.92381654229592" sparseCutoff="1.0000000000000000"/>
      <sparseX i="763" alpha="306.82173934055498" sparseCutoff="1.0000000000000000"/>
      <sparseX i="764" alpha="679.56550191732720" sparseCutoff="1.0000000000000000"/>
      <sparseX i="765" alpha="300.17496723756517" sparseCutoff="1.0000000000000000"/>
      <sparseX i="766" alpha="202.13350915870120" sparseCutoff="1.0000000000000000"/>
      <sparseX i="767" alpha="-131.43616655355723" sparseCutoff="1.0000000000000000"/>
      <sparseX i="768" alpha="317.02258579947409" sparseCutoff="1.0000000000000000"/>
      <sparseX i="769" alpha="88.118430311949652" sparseCutoff="1.0000000000000000"/>
      <sparseX i="770" alpha="45.828649983852621" sparseCutoff="1.0000000000000000"/>
      <sparseX i="771" alpha="46.055609620846155" sparseCutoff="1.0000000000000000"/>
      <sparseX i="772" alpha="3.0553040242258591" sparseCutoff="1.0000000000000000"/>
      <sparseX i="773" alpha="-268.49498861852913" sparseCutoff="1.0000000000000000"/>
      <sparseX i="774" alpha="-164.71629773657961" sparseCutoff="1.0000000000000000"/>
      <sparseX i="775" alpha="-2998.2209031242237" sparseCutoff="1.0000000000000000"/>
      <sparseX i="776" alpha="-1324.4662306419830" sparseCutoff="1.0000000000000000"/>
      <sparseX i="777" alpha="-607.10823132507539" sparseCutoff="1.0000000000000000"/>
      <sparseX i="778" alpha="2866.3889838770369" sparseCutoff="1.0000000000000000"/>
      <sparseX i="779" alpha="728.98298505477339" sparseCutoff="1.0000000000000000"/>
      <sparseX i="780" alpha="42448.311562644638" sparseCutoff="1.0000000000000000"/>
      <sparseX i="781" alpha="-3415.2197748415724" sparseCutoff="1.0000000000000000"/>
      <sparseX i="782" alpha="23387.255942958593" sparseCutoff="1.0000000000000000"/>
      <sparseX i="783" alpha="72600.555868606301" sparseCutoff="1.0000000000000000"/>
      <sparseX i="784" alpha="-16784.307676934426" sparseCutoff="1.0000000000000000"/>
      <sparseX i="785" alpha="-4584.6526393946888" sparseCutoff="1.0000000000000000"/>
      <sparseX i="786" alpha="529.25156699799095" sparseCutoff="1.0000000000000000"/>
      <sparseX i="787" alpha="-1341.3375526526752" sparseCutoff="1.0000000000000000"/>
      <sparseX i="788" alpha="1751.8437841671418" sparseCutoff="1.0000000000000000"/>
      <sparseX i="789" alpha="1212.6626249692256" sparseCutoff="1.0000000000000000"/>
      <sparseX i="790" alpha="1285.1466629655151" sparseCutoff="1.0000000000000000"/>
      <sparseX i="791" alpha="-1109.7859607882972" sparseCutoff="1.0000000000000000"/>
      <sparseX i="792" alpha="-1867.0720761152222" sparseCutoff="1.0000000000000000"/>
      <sparseX i="793" alpha="-1278.7603593136582" sparseCutoff="1.0000000000000000"/>
      <sparseX i="794" alpha="-2185.2477838074110" sparseCutoff="1.0000000000000000"/>
      <sparseX i="795" alpha="-424.48682121295269" sparseCutoff="1.0000000000000000"/>
      <sparseX i="796" alpha="-2387.7059609322064" sparseCutoff="1.0000000000000000"/>
      <sparseX i="797" alpha="-715.82004388435575" sparseCutoff="1.0000000000000000"/>
      <sparseX i="798" alpha="1672.9613957306794" sparseCutoff="1.0000000000000000"/>
      <sparseX i="799" alpha="-174.25942962475824" sparseCutoff="1.0000000000000000"/>
      <sparseX i="800" alpha="14450.485847223908" sparseCutoff="1.0000000000000000"/>
      <sparseX i="801" alpha="16600.612779218685" sparseCutoff="1.0000000000000000"/>
      <sparseX i="802" alpha="31615.882527472160" sparseCutoff="1.0000000000000000"/>
      <sparseX i="803" alpha="19775.268392982805" sparseCutoff="1.0000000000000000"/>
      <sparseX i="804" alpha="1590.6440593559530" sparseCutoff="1.0000000000000000"/>
      <sparseX i="805" alpha="158.58090783363645" sparseCutoff="1.0000000000000000"/>
      <sparseX i="806" alpha="327.83583078309073" sparseCutoff="1.0000000000000000"/>
      <sparseX i="807" alpha="171.89818214607075" sparseCutoff="1.0000000000000000"/>
      <sparseX i="808" alpha="90.484679104571185" sparseCutoff="1.0000000000000000"/>
      <sparseX i="809" alpha="-120.93611950230813" sparseCutoff="1.0000000000000000"/>
      <sparseX i="810" alpha="32.293418201189731" sparseCutoff="1.0000000000000000"/>
      <sparseX i="811" alpha="87.970989578773512" sparseCutoff="1.0000000000000000"/>
      <sparseX i="812" alpha="-360.65952965737534" sparseCutoff="1.0000000000000000"/>
      <sparseX i="813" alpha="6346.4344197857790" sparseCutoff="1.0000000000000000"/>
      <sparseX i="814" alpha="-33361.248672171110" sparseCutoff="1.0000000000000000"/>
      <sparseX i="815" alpha="40399.169594845967" sparseCutoff="1.0000000000000000"/>
      <sparseX i="816" alpha="30835.330108852417" sparseCutoff="1.0000000000000000"/>
      <sparseX i="817" alpha="-29548.895698473618" sparseCutoff="1.0000000000000000"/>
      <sparseX i="818" alpha="-52830.358794080719" sparseCutoff="1.0000000000000000"/>
      <sparseX i="819" alpha="610.82790970474093" sparseCutoff="1.0000000000000000"/>
      <sparseX i="820" alpha="96.375315059644478" sparseCutoff="1.0000000000000000"/>
      <sparseX i="821" alpha="-390.21955900533624" sparseCutoff="1.0000000000000000"/>
      <sparseX i="822" alpha="-11491.814075808901" sparseCutoff="1.0000000000000000"/>
      <sparseX i="823" alpha="1302.1488749234688" sparseCutoff="1.0000000000000000"/>
      <sparseX i="824" alpha="277.39541202765071" sparseCutoff="1.0000000000000000"/>
      <sparseX i="825" alpha="-1028.0209216084750" sparseCutoff="1.0000000000000000"/>
      <sparseX i="826" alpha="-2240.1610152616304" sparseCutoff="1.0000000000000000"/>
      <sparseX i="827" alpha="260.46698835200300" sparseCutoff="1.0000000000000000"/>
      <sparseX i="828" alpha="-2087.1090020185356" sparseCutoff="1.0000000000000000"/>
      <sparseX i="829" alpha="-3610.3746287301956" sparseCutoff="1.0000000000000000"/>
      <sparseX i="830" alpha="-1264.8759062737690" sparseCutoff="1.0000000000000000"/>
      <sparseX i="831" alpha="-22448.859739208780" sparseCutoff="1.0000000000000000"/>
      <sparseX i="832" alpha="20776.270571752812" sparseCutoff="1.0000000000000000"/>
      <sparseX i="833" alpha="-90844.094726759955" sparseCutoff="1.0000000000000000"/>
      <sparseX i="834" alpha="-72204.961670315242" sparseCutoff="1.0000000000000000"/>
      <sparseX i="835" alpha="-38616.331909541339" sparseCutoff="1.0000000000000000"/>
      <sparseX i="836" alpha="-12588.729094416542" sparseCutoff="1.0000000000000000"/>
      <sparseX i="837" alpha="2433.8131934170037" sparseCutoff="1.0000000000000000"/>
      <sparseX i="838" alpha="86.310894602609835" sparseCutoff="1.0000000000000000"/>
      <sparseX i="839" alpha="-36.346141647439886" sparseCutoff="1.0000000000000000"/>
      <sparseX i="840" alpha="-119.38063331154422" sparseCutoff="1.0000000000000000"/>
      <sparseX i="841" alpha="136.79805164540636" sparseCutoff="1.0000000000000000"/>
      <sparseX i="842" alpha="106.31136818598081" sparseCutoff="1.0000000000000000"/>
      <sparseX i="843" alpha="117.85897288407199" sparseCutoff="1.0000000000000000"/>
      <sparseX i="844" alpha="36.833294181422033" sparseCutoff="1.0000000000000000"/>
      <sparseX i="845" alpha="-26376.142826865696" sparseCutoff="1.0000000000000000"/>
      <sparseX i="846" alpha="-417.11095966597810" sparseCutoff="1.0000000000000000"/>
      <sparseX i="847" alpha="-594.60607682092575" sparseCutoff="1.0000000000000000"/>
      <sparseX i="848" alpha="46387.025342034205" sparseCutoff="1.0000000000000000"/>
      <sparseX i="849" alpha="-129833.21637593253" sparseCutoff="1.0000000000000000"/>
      <sparseX i="850" alpha="95995.404273245833" sparseCutoff="1.0000000000000000"/>
      <sparseX i="851" alpha="27590.418933193636" sparseCutoff="1.0000000000000000"/>
      <sparseX i="852" alpha="1341.4273203512739" sparseCutoff="1.0000000000000000"/>
      <sparseX i="853" alpha="-829.09487523773134" sparseCutoff="1.0000000000000000"/>
      <sparseX i="854" alpha="2437.2024845897422" sparseCutoff="1.0000000000000000"/>
      <sparseX i="855" alpha="-3680.9182322062275" sparseCutoff="1.0000000000000000"/>
      <sparseX i="856" alpha="-2699.8712520087324" sparseCutoff="1.0000000000000000"/>
      <sparseX i="857" alpha="-2662.7806333308358" sparseCutoff="1.0000000000000000"/>
      <sparseX i="858" alpha="1148.7153468275801" sparseCutoff="1.0000000000000000"/>
      <sparseX i="859" alpha="-90.684176288776840" sparseCutoff="1.0000000000000000"/>
      <sparseX i="860" alpha="105.80163899735051" sparseCutoff="1.0000000000000000"/>
      <sparseX i="861" alpha="89.286881607313191" sparseCutoff="1.0000000000000000"/>
      <sparseX i="862" alpha="34.782303619272298" sparseCutoff="1.0000000000000000"/>
      <sparseX i="863" alpha="-4729.6011505108963" sparseCutoff="1.0000000000000000"/>
      <sparseX i="864" alpha="4642.1068371492274" sparseCutoff="1.0000000000000000"/>
      <sparseX i="865" alpha="171.53693174404506" sparseCutoff="1.0000000000000000"/>
      <sparseX i="866" alpha="260.53220421530909" sparseCutoff="1.0000000000000000"/>
      <sparseX i="867" alpha="-6501.5217320676729" sparseCutoff="1.0000000000000000"/>
      <sparseX i="868" alpha="3033.3214489557836" sparseCutoff="1.0000000000000000"/>
      <sparseX i="869" alpha="-2009.9096561612864" sparseCutoff="1.0000000000000000"/>
      <sparseX i="870" alpha="39.526423819130805" sparseCutoff="1.0000000000000000"/>
      <sparseX i="871" alpha="17319.639841338445" sparseCutoff="1.0000000000000000"/>
      <sparseX i="872" alpha="-34683.106859428553" sparseCutoff="1.0000000000000000"/>
      <sparseX i="873" alpha="21821.280783507020" sparseCutoff="1.0000000000000000"/>
      <sparseX i="874" alpha="16999.299296610257" sparseCutoff="1.0000000000000000"/>
      <sparseX i="875" alpha="-3096.3472686579785" sparseCutoff="1.0000000000000000"/>
      <sparseX i="876" alpha="-258.14189234087883" sparseCutoff="1.0000000000000000"/>
      <sparseX i="877" alpha="3909.5687538699203" sparseCutoff="1.0000000000000000"/>
      <sparseX i="878" alpha="1066.2494245824910" sparseCutoff="1.0000000000000000"/>
      <sparseX i="879" alpha="6752.9654579224743" sparseCutoff="1.0000000000000000"/>
      <sparseX i="880" alpha="331.82537236590179" sparseCutoff="1.0000000000000000"/>
      <sparseX i="881" alpha="1787.0595360794048" sparseCutoff="1.0000000000000000"/>
      <sparseX i="882" alpha="162.13193311082264" sparseCutoff="1.0000000000000000"/>
      <sparseX i="883" alpha="12.216515043818204" sparseCutoff="1.0000000000000000"/>
      <sparseX i="884" alpha="698.10778144095514" sparseCutoff="1.0000000000000000"/>
      <sparseX i="885" alpha="-95.043172567149554" sparseCutoff="1.0000000000000000"/>
      <sparseX i="886" alpha="-115.59653591371131" sparseCutoff="1.0000000000000000"/>
      <sparseX i="887" alpha="2.1102854422122355" sparseCutoff="1.0000000000000000"/>
      <sparseX i="888" alpha="-42.389764538764872" sparseCutoff="1.0000000000000000"/>
      <sparseX i="889" alpha="-2933.2015567887870" sparseCutoff="1.0000000000000000"/>
      <sparseX i="890" alpha="2220.0952202139088" sparseCutoff="1.0000000000000000"/>
      <sparseX i="891" alpha="-593.10232137596188" sparseCutoff="1.0000000000000000"/>
      <sparseX i="892" alpha="-24014.726487876811" sparseCutoff="1.0000000000000000"/>
      <sparseX i="893" alpha="51543.915336868857" sparseCutoff="1.0000000000000000"/>
      <sparseX i="894" alpha="44382.970764933074" sparseCutoff="1.0000000000000000"/>
      <sparseX i="895" alpha="76898.741890996389" sparseCutoff="1.0000000000000000"/>
      <sparseX i="896" alpha="8053.4600137197885" sparseCutoff="1.0000000000000000"/>
      <sparseX i="897" alpha="-462.04766476694590" sparseCutoff="1.0000000000000000"/>
      <sparseX i="898" alpha="-9427.0960793142058" sparseCutoff="1.0000000000000000"/>
      <sparseX i="899" alpha="956.46725996963596" sparseCutoff="1.0000000000000000"/>
      <sparseX i="900" alpha="1763.1145152393883" sparseCutoff="1.0000000000000000"/>
      <sparseX i="901" alpha="-4287.0628434443570" sparseCutoff="1.0000000000000000"/>
      <sparseX i="902" alpha="12265.799814283153" sparseCutoff="1.0000000000000000"/>
      <sparseX i="903" alpha="5524.8678804073525" sparseCutoff="1.0000000000000000"/>
      <sparseX i="904" alpha="112327.00215960457" sparseCutoff="1.0000000000000000"/>
      <sparseX i="905" alpha="-11325.171905896996" sparseCutoff="1.0000000000000000"/>
      <sparseX i="906" alpha="-38968.986571230598" sparseCutoff="1.0000000000000000"/>
      <sparseX i="907" alpha="-36850.730960282410" sparseCutoff="1.0000000000000000"/>
      <sparseX i="908" alpha="499.00152133457885" sparseCutoff="1.0000000000000000"/>
      <sparseX i="909" alpha="269.34775786135413" sparseCutoff="1.0000000000000000"/>
      <sparseX i="910" alpha="65.993042222458925" sparseCutoff="1.0000000000000000"/>
      <sparseX i="911" alpha="-740.63798976285682" sparseCutoff="1.0000000000000000"/>
      <sparseX i="912" alpha="55.751314347268931" sparseCutoff="1.0000000000000000"/>
      <sparseX i="913" alpha="-617.98128555666199" sparseCutoff="1.0000000000000000"/>
      <sparseX i="914" alpha="-.24036953683001336" sparseCutoff="1.0000000000000000"/>
      <sparseX i="915" alpha="-247.28508194668569" sparseCutoff="1.0000000000000000"/>
      <sparseX i="916" alpha="360.35741602457819" sparseCutoff="1.0000000000000000"/>
      <sparseX i="917" alpha="-843.77668976569282" sparseCutoff="1.0000000000000000"/>
      <sparseX i="918" alpha="-38.705065539517079" sparseCutoff="1.0000000000000000"/>
      <sparseX i="919" alpha="611.77891729494752" sparseCutoff="1.0000000000000000"/>
      <sparseX i="920" alpha="179.45496623974299" sparseCutoff="1.0000000000000000"/>
      <sparseX i="921" alpha="-121.91607736839656" sparseCutoff="1.0000000000000000"/>
      <sparseX i="922" alpha="-84.429157454848934" sparseCutoff="1.0000000000000000"/>
      <sparseX i="923" alpha="-633.69740963266747" sparseCutoff="1.0000000000000000"/>
      <sparseX i="924" alpha="-72.661513173394681" sparseCutoff="1.0000000000000000"/>
      <sparseX i="925" alpha="-3197.6568161110818" sparseCutoff="1.0000000000000000"/>
      <sparseX i="926" alpha="-1215.7942111409909" sparseCutoff="1.0000000000000000"/>
      <sparseX i="927" alpha="4105.8483709063321" sparseCutoff="1.0000000000000000"/>
      <sparseX i="928" alpha="-886.23676512789177" sparseCutoff="1.0000000000000000"/>
      <sparseX i="929" alpha="-46166.788386398875" sparseCutoff="1.0000000000000000"/>
      <sparseX i="930" alpha="-6915.2435524800812" sparseCutoff="1.0000000000000000"/>
      <sparseX i="931" alpha="42015.702942528653" sparseCutoff="1.0000000000000000"/>
      <sparseX i="932" alpha="-17306.344714041170" sparseCutoff="1.0000000000000000"/>
      <sparseX i="933" alpha="113715.08173931004" sparseCutoff="1.0000000000000000"/>
      <sparseX i="934" alpha="50110.603207322929" sparseCutoff="1.0000000000000000"/>
      <sparseX i="935" alpha="1466.8387870438551" sparseCutoff="1.0000000000000000"/>
      <sparseX i="936" alpha="-819.83147091369437" sparseCutoff="1.0000000000000000"/>
      <sparseX i="937" alpha="1880.4943549128632" sparseCutoff="1.0000000000000000"/>
      <sparseX i="938" alpha="-888.76147184072704" sparseCutoff="1.0000000000000000"/>
      <sparseX i="939" alpha="786.08833521182282" sparseCutoff="1.0000000000000000"/>
      <sparseX i="940" alpha="542.09425200994224" sparseCutoff="1.0000000000000000"/>
      <sparseX i="941" alpha="107.12905252710819" sparseCutoff="1.0000000000000000"/>
      <sparseX i="942" alpha="2034.5836492317349" sparseCutoff="1.0000000000000000"/>
      <sparseX i="943" alpha="-149.11138821646918" sparseCutoff="1.0000000000000000"/>
      <sparseX i="944" alpha="634.53789291069825" sparseCutoff="1.0000000000000000"/>
      <sparseX i="945" alpha="285819.88125391025" sparseCutoff="1.0000000000000000"/>
      <sparseX i="946" alpha="140850.42140657996" sparseCutoff="1.0000000000000000"/>
      <sparseX i="947" alpha="7174.3136083609497" sparseCutoff="1.0000000000000000"/>
      <sparseX i="948" alpha="58637.368090942779" sparseCutoff="1.0000000000000000"/>
      <sparseX i="949" alpha="10108.680550057123" sparseCutoff="1.0000000000000000"/>
      <sparseX i="950" alpha="-70101.645891153559" sparseCutoff="1.0000000000000000"/>
      <sparseX i="951" alpha="49873.944383128124" sparseCutoff="1.0000000000000000"/>
      <sparseX i="952" alpha="1180.6741159480559" sparseCutoff="1.0000000000000000"/>
      <sparseX i="953" alpha="608.12416302552163" sparseCutoff="1.0000000000000000"/>
      <sparseX i="954" alpha="2080.0943368700600" sparseCutoff="1.0000000000000000"/>
      <sparseX i="955" alpha="127.10678852666290" sparseCutoff="1.0000000000000000"/>
      <sparseX i="956" alpha="-144.69124732426482" sparseCutoff="1.0000000000000000"/>
      <sparseX i="957" alpha="305.87680621396839" sparseCutoff="1.0000000000000000"/>
      <sparseX i="958" alpha="470.97025581105987" sparseCutoff="1.0000000000000000"/>
      <sparseX i="959" alpha="870.29656295423752" sparseCutoff="1.0000000000000000"/>
      <sparseX i="960" alpha="-1449.2725583548718" sparseCutoff="1.0000000000000000"/>
      <sparseX i="961" alpha="4221.0209775169524" sparseCutoff="1.0000000000000000"/>
      <sparseX i="962" alpha="510.65465206133882" sparseCutoff="1.0000000000000000"/>
      <sparseX i="963" alpha="-950.49008345143602" sparseCutoff="1.0000000000000000"/>
      <sparseX i="964" alpha="-52697.735923799897" sparseCutoff="1.0000000000000000"/>
      <sparseX i="965" alpha="-22014.613174379079" sparseCutoff="1.0000000000000000"/>
      <sparseX i="966" alpha="-361.26111486041754" sparseCutoff="1.0000000000000000"/>
      <sparseX i="967" alpha="-237.69315997408418" sparseCutoff="1.0000000000000000"/>
      <sparseX i="968" alpha="-1435.3783852351767" sparseCutoff="1.0000000000000000"/>
      <sparseX i="969" alpha="3522.5029065378453" sparseCutoff="1.0000000000000000"/>
      <sparseX i="970" alpha="561.41661975152249" sparseCutoff="1.0000000000000000"/>
      <sparseX i="971" alpha="-26656.158780665221" sparseCutoff="1.0000000000000000"/>
      <sparseX i="972" alpha="-73893.402582363240" sparseCutoff="1.0000000000000000"/>
      <sparseX i="973" alpha="23365.166486192407" sparseCutoff="1.0000000000000000"/>
      <sparseX i="974" alpha="1860.9461951204796" sparseCutoff="1.0000000000000000"/>
      <sparseX i="975" alpha="6.7645908232733705" sparseCutoff="1.0000000000000000"/>
      <sparseX i="976" alpha="-22.645481554341284" sparseCutoff="1.0000000000000000"/>
      <sparseX i="977" alpha="45.697741287313960" sparseCutoff="1.0000000000000000"/>
      <sparseX i="978" alpha="186.21968555856625" sparseCutoff="1.0000000000000000"/>
      <sparseX i="979" alpha="22.927374346208218" sparseCutoff="1.0000000000000000"/>
      <sparseX i="980" alpha="-32.139270670961963" sparseCutoff="1.0000000000000000"/>
      <sparseX i="981" alpha="-24.054379780813385" sparseCutoff="1.0000000000000000"/>
      <sparseX i="982" alpha="-59.938576795100381" sparseCutoff="1.0000000000000000"/>
      <sparseX i="983" alpha="-157.89985365184140" sparseCutoff="1.0000000000000000"/>
      <sparseX i="984" alpha="72.796955596321141" sparseCutoff="1.0000000000000000"/>
      <sparseX i="985" alpha="-126.61708189667573" sparseCutoff="1.0000000000000000"/>
      <sparseX i="986" alpha="-10.099221835024284" sparseCutoff="1.0000000000000000"/>
      <sparseX i="987" alpha="312.10075927604601" sparseCutoff="1.0000000000000000"/>
      <sparseX i="988" alpha="297.69104504770792" sparseCutoff="1.0000000000000000"/>
      <sparseX i="989" alpha="-1028.4121490456944" sparseCutoff="1.0000000000000000"/>
      <sparseX i="990" alpha="-5788.3100830796993" sparseCutoff="1.0000000000000000"/>
      <sparseX i="991" alpha="-431.70247660048250" sparseCutoff="1.0000000000000000"/>
      <sparseX i="992" alpha="-48129.675416119018" sparseCutoff="1.0000000000000000"/>
      <sparseX i="993" alpha="11005.146490385772" sparseCutoff="1.0000000000000000"/>
      <sparseX i="994" alpha="25455.955698185957" sparseCutoff="1.0000000000000000"/>
      <sparseX i="995" alpha="-77244.097063785142" sparseCutoff="1.0000000000000000"/>
      <sparseX i="996" alpha="-32563.653534457149" sparseCutoff="1.0000000000000000"/>
      <sparseX i="997" alpha="3104.4697428573427" sparseCutoff="1.0000000000000000"/>
      <sparseX i="998" alpha="18667.911867240273" sparseCutoff="1.0000000000000000"/>
      <sparseX i="999" alpha="-436.21578200841452" sparseCutoff="1.0000000000000000"/>
      <sparseX i="1000" alpha="-122.75229525872359" sparseCutoff="1.0000000000000000"/>
      <sparseX i="1001" alpha="-30052.054176349386" sparseCutoff="1.0000000000000000"/>
      <sparseX i="1002" alpha="-43176.389617988694" sparseCutoff="1.0000000000000000"/>
      <sparseX i="1003" alpha="1121.4794178415386" sparseCutoff="1.0000000000000000"/>
      <sparseX i="1004" alpha="-127.63460578969277" sparseCutoff="1.0000000000000000"/>
      <sparseX i="1005" alpha="114.14668073959309" sparseCutoff="1.0000000000000000"/>
      <sparseX i="1006" alpha="140.90294051277999" sparseCutoff="1.0000000000000000"/>
      <sparseX i="1007" alpha="89.658865717000083" sparseCutoff="1.0000000000000000"/>
      <sparseX i="1008" alpha="-69.076800524826311" sparseCutoff="1.0000000000000000"/>
      <sparseX i="1009" alpha="444.41724041632244" sparseCutoff="1.0000000000000000"/>
      <sparseX i="1010" alpha="-469.16555306843355" sparseCutoff="1.0000000000000000"/>
      <sparseX i="1011" alpha="-1572.4065055958017" sparseCutoff="1.0000000000000000"/>
      <sparseX i="1012" alpha="1655.2927690243769" sparseCutoff="1.0000000000000000"/>
      <sparseX i="1013" alpha="-2288.5306193110332" sparseCutoff="1.0000000000000000"/>
      <sparseX i="1014" alpha="-6412.0976820482792" sparseCutoff="1.0000000000000000"/>
      <sparseX i="1015" alpha="3834.6105943552457" sparseCutoff="1.0000000000000000"/>
      <sparseX i="1016" alpha="-1543.4044309844992" sparseCutoff="1.0000000000000000"/>
      <sparseX i="1017" alpha="2333.2499199507752" sparseCutoff="1.0000000000000000"/>
      <sparseX i="1018" alpha="-3731.7106828528595" sparseCutoff="1.0000000000000000"/>
      <sparseX i="1019" alpha="2046.0442965376915" sparseCutoff="1.0000000000000000"/>
      <sparseX i="1020" alpha="-87993.215689402088" sparseCutoff="1.0000000000000000"/>
      <sparseX i="1021" alpha="90688.141759479695" sparseCutoff="1.0000000000000000"/>
      <sparseX i="1022" alpha="-85135.585012869225" sparseCutoff="1.0000000000000000"/>
      <sparseX i="1023" alpha="-1029.6937262595065" sparseCutoff="1.0000000000000000"/>
      <sparseX i="1024" alpha="-409.60693540113499" sparseCutoff="1.0000000000000000"/>
      <sparseX i="1025" alpha="-4325.0981102734495" sparseCutoff="1.0000000000000000"/>
      <sparseX i="1026" alpha="3435.5050777380084" sparseCutoff="1.0000000000000000"/>
      <sparseX i="1027" alpha="-314.11941314627347" sparseCutoff="1.0000000000000000"/>
      <sparseX i="1028" alpha="1919.3325675044121" sparseCutoff="1.0000000000000000"/>
      <sparseX i="1029" alpha="200.18692994707612" sparseCutoff="1.0000000000000000"/>
      <sparseX i="1030" alpha="1187.8641260700401" sparseCutoff="1.0000000000000000"/>
      <sparseX i="1031" alpha="6211.3906768707502" sparseCutoff="1.0000000000000000"/>
      <sparseX i="1032" alpha="-58911.821804903200" sparseCutoff="1.0000000000000000"/>
      <sparseX i="1033" alpha="48.666914207241625" sparseCutoff="1.0000000000000000"/>
      <sparseX i="1034" alpha="-3133.0020811890959" sparseCutoff="1.0000000000000000"/>
      <sparseX i="1035" alpha="257.40631145965045" sparseCutoff="1.0000000000000000"/>
      <sparseX i="1036" alpha="-283.65663207533657" sparseCutoff="1.0000000000000000"/>
      <sparseX i="1037" alpha="-110.84724617982428" sparseCutoff="1.0000000000000000"/>
      <sparseX i="1038" alpha="64.755247731693984" sparseCutoff="1.0000000000000000"/>
      <sparseX i="1039" alpha="-.89276448693950128E-001" sparseCutoff="1.0000000000000000"/>
      <sparseX i="1040" alpha="21.115572514127841" sparseCutoff="1.0000000000000000"/>
      <sparseX i="1041" alpha="-148.88295113075705" sparseCutoff="1.0000000000000000"/>
